tree
version=v4
num_class=1
num_tree_per_iteration=1
label_index=0
max_feature_idx=88
objective=lambdarank
feature_names=price log_price price_bucket review_count log_review_count review_rating bayesian_rating star_1_ratio star_2_ratio star_3_ratio star_4_ratio star_5_ratio review_polarisation rc_cleanliness rc_service rc_price_quality rc_room rc_location rc_mean rc_std rc_min total_comments days_since_latest_review comment_good_ratio comment_bad_ratio has_photos_in_reviews hotel_class hotel_class_1 hotel_class_2 hotel_class_3 hotel_class_4 hotel_class_5 latitude longitude dist_to_user_km log_dist_to_user nearby_food_count nearby_food_min_dist_m nearby_food_avg_dist_m nearby_beaches_count nearby_beaches_min_dist_m nearby_beaches_avg_dist_m nearby_attractions_count nearby_attractions_min_dist_m nearby_attractions_avg_dist_m nearby_transport_count nearby_transport_min_dist_m nearby_transport_avg_dist_m total_facilities free_facilities free_facility_ratio fac_transfer fac_bath fac_pool fac_spa fac_gym fac_wifi fac_parking fac_restaurant fac_bar fac_laundry fac_concierge fac_room_service fac_airport_shuttle fac_kids_club has_cancellation is_smoking is_pet_friendly is_party_friendly has_refund max_refund_percent refund_conditions_count checkin_after_hour checkout_before_hour stay_window_hours payment_options_count accepts_user_currency description_length has_description title_mentions_star ctx_is_family ctx_is_business ctx_is_solo ctx_is_couple family_x_pet ctx_budget_low ctx_budget_mid ctx_budget_high budget_price_match
feature_infos=[10:1675] [2.3978952727983707:7.4241652810420282] [0:4] [0:15000] [0:9.6158721445288897] [1:5] [1.0153468385512585:4.9970059880239521] [0:1] [0:1] [0:1] [0:1] [0:1] [-1:1] [1:10] [1:10] [1:10] [1.1000000000000001:10] [1:10] [1.7599999999999998:10] [0:2.1740285186721908] [1:10] [0:10] [121:9999] [0:1] [0:1] [0:1] [1:5] [0:1] [0:1] [0:1] [0:1] [0:1] [24.52557565678142:55.492353451710471] [-10.406267921805135:50.440865902252362] [0.22419846680762121:97.156906891163175] [0.20228631703053665:4.5865672890174567] [0:5] [50:99999] [53:99999] [0:5] [50:99999] [51:99999] [0:5] [50:99999] [50:99999] none none none [1:14] [0:12] [0:1] [0:1] [0:1] [0:1] [0:1] [0:1] [0:1] [0:1] [0:1] [0:1] [0:1] [0:1] [0:1] [0:1] [0:1] [0:1] [0:1] [0:1] [0:1] [0:1] [0:100] [0:2] [12:16] [10:14] [18:26] none [0:1] [10:100] none none [0:1] [0:1] [0:1] [0:1] [0:1] [0:1] [0:1] [0:1] [0:1]
tree_sizes=11019 13528 13458 13473 13261 13554 13550 13526 13404 13409 13496 13467 13527 13534 13439 13569 13544 13407 13515 13414 13446 13457 13472 13393 13490 13090 13565 12321 12436 13527 13067 12181 13376 11874 13538 12360 13567 12485 12118 13433 11968 13487 13369 13416 12611 13363 13511 12514 13471 13347 12685 13471 12607 13414 13452 12599 11341 13646 12465 13473 13334 12151 11208 12646 13448 12107 13439 12268 12024 13347 12179 11863 13358 13462 13352 12913 12865 11555 12333 13418 13265 12458 12088 13466 11669 10763 13023 13419 13305 13467 12943 13326 13376 13371 12766 13262 13429 11400 13213 13264 11703 13317 13300 10846 12355 11712 12561 13557 13187 13235 13293 13291 13480 13095 13237 12451 9870 13353 11421 13287 13348 11686 10985 13269 13301 11075 13492 13108 13324 13029 12777 13158 13298 13311 13195 10108 13088 13219 13184 13132 12944 11326 13172 10702 13091 13015 13132 13052 12972 13174 13010 13250 12831 13205 13296 10479 10366 10899 12778 13141 13259 12946 13084 13201 13114 13320 13145 11437 13026 13074 13177 13068 12986 12898 12859 13011 9064 11579 13051 8545 12943 13151 12272 12955 13129 11695 13041 12950 13003 13018 12981 11659 9122 12585 10179 6438 12906 13063 8375 11626 12958 13012 10100 12824 10901 10723 12949 9178 12074 12936 12924 12854 12916 5375 9998 13082 11725 11848 12449 7900 11283 12971 11711 12665 6300 12992 9411 12929 11350 12206 12848 13136 12964 11709 11189 13094 12763 13001 7448 12517 9033 11849 9742 7920 7637 11482 11411 12918 12929 12926 12835 8818 12981 9227 12851 12953 13027 12879 6783 12726 9986 9030

Tree=0
num_leaves=104
num_cat=0
split_feature=34 18 34 6 34 34 6 88 18 18 88 0 88 6 0 6 34 88 0 34 88 6 34 34 0 88 6 6 12 49 88 0 6 6 53 12 0 6 0 34 32 34 0 17 6 34 32 34 26 0 6 34 0 0 34 9 34 8 6 20 34 12 20 12 32 7 48 34 18 34 34 0 11 11 19 3 49 11 88 34 0 11 6 9 7 7 19 20 34 0 20 16 6 7 11 20 17 18 12 18 16 11 6
split_gain=1328.52 150.797 103.644 94.9525 78.6233 59.1104 39.2091 22.7107 17.3604 14.2453 12.1931 38.214 12.056 11.0462 10.6093 10.5735 11.5023 8.34196 30.6502 8.26508 7.75663 6.63379 5.99341 5.31139 3.9619 3.92579 3.84225 3.50849 3.29374 3.217 3.117 2.75724 2.50573 2.45079 2.44509 2.41124 2.37063 2.30627 2.28781 2.24475 2.06566 2.05623 1.98404 1.89142 1.7813 1.72063 1.62174 1.51771 1.34194 1.32307 1.30967 1.28868 1.33164 1.26511 1.26241 1.24175 1.05223 0.99668 0.99449 0.974972 0.964293 0.867839 0.846597 0.784312 0.827191 0.73609 0.701351 0.701231 4.9565 0.678232 0.633515 0.610253 0.575874 0.56998 0.542644 0.511726 0.445185 0.436215 0.41751 0.360636 0.336587 0.3227 0.322078 0.29625 0.264686 0.359268 0.252258 0.241762 0.519441 0.207219 0.187876 0.171943 0.169927 0.143205 0.142626 0.0631041 0.0619134 0.0537406 0.0516247 0.0420183 0.0247577 0.0237562 0.0147326
threshold=19.642563282673695 6.660000000000001 26.127002943526033 3.9106203007518801 10.895989679753614 12.832048853593969 3.8048399687743952 1.0000000180025095e-35 5.910000000000001 5.0700000000000012 1.0000000180025095e-35 300.50000000000006 1.0000000180025095e-35 3.643126684636119 300.50000000000006 4.3471106250719478 32.273246655050677 1.0000000180025095e-35 311.50000000000006 15.128144704443629 1.0000000180025095e-35 4.2659331315809625 15.000528609654241 17.838253100523236 134.50000000000003 1.0000000180025095e-35 4.1479825037298257 3.2142970701794238 0.52493411751208841 4.5000000000000009 1.0000000180025095e-35 243.50000000000003 3.6204651162790702 2.9146727432170292 1.0000000180025095e-35 0.27830569251456755 287.50000000000006 3.4091047250621722 230.50000000000003 22.294397216914664 26.016747965633929 22.294397216914664 72.500000000000014 4.0500000000000007 4.3471106250719478 8.1393157476846785 40.038278161337274 16.035195967615341 3.5000000000000004 255.50000000000003 4.8242032378158859 17.438135176748279 185.50000000000003 191.50000000000003 20.392496323086661 0.22066511228371583 22.505944809038549 0.31594071385359956 2.77312834224599 4.5500000000000007 27.300162031093592 0.34413603400850218 6.8500000000000005 0.51774098787192091 54.077975818597992 0.058851919146036803 2.5000000000000004 30.319121659106553 8.9900000000000038 9.5842560158597312 15.900985444279497 204.50000000000003 0.17571130005224914 0.53624465084400252 0.49799598391954958 61.500000000000007 3.5000000000000004 0.29632387413474537 1.0000000180025095e-35 12.018037696012341 132.50000000000003 0.28560405643738979 2.9146727432170292 0.14297739297739301 0.0074246339362618449 0.014170484490316682 0.1810942329991084 6.2500000000000009 17.303959263566082 306.50000000000006 8.8500000000000032 9.9500000000000011 4.5127143799472309 0.003868486426625962 0.51517861982978275 8.5500000000000025 8.6500000000000004 9.1300000000000026 -0.37498728382502539 9.0700000000000021 9.7500000000000018 0.55079966866318342 4.6741284744817344
decision_type=2 2 2 2 2 2 2 2 2 2 2 2 2 2 2 2 2 2 2 2 2 2 2 2 2 2 2 2 2 2 2 2 2 2 2 2 2 2 2 2 2 2 2 2 2 2 2 2 2 2 2 2 2 2 2 2 2 2 2 2 2 2 2 2 2 2 2 2 2 2 2 2 2 2 2 2 2 2 2 2 2 2 2 2 2 2 2 2 2 2 2 2 2 2 2 2 2 2 2 2 2 2 2
left_child=1 4 3 13 9 17 12 14 72 25 11 28 22 -2 29 67 50 18 32 27 33 41 36 24 37 82 45 65 70 44 100 -30 38 -11 59 -25 46 -14 42 62 -21 66 -3 76 54 77 -7 -26 -37 57 60 52 -24 -36 -5 75 -31 -35 -22 -29 92 -40 93 64 -42 78 -9 68 -4 -28 -8 -46 -6 89 90 -43 -27 -20 -10 -67 -57 -64 -1 -68 -41 -86 -23 88 -12 -13 -62 -75 -17 -32 -71 -76 -58 99 -45 -70 -15 -52 -94
right_child=2 5 15 7 8 6 10 21 19 20 87 73 23 30 -16 16 -18 -19 26 40 58 86 51 35 47 43 69 34 31 56 39 -33 -34 49 53 48 -38 -39 61 84 63 55 -44 98 71 -47 -48 -49 -50 -51 101 -53 -54 -55 -56 80 96 -59 -60 -61 74 -63 81 -65 -66 79 83 -69 97 94 -72 -73 -74 91 95 -77 -78 -79 -80 -81 -82 -83 -84 -85 85 -87 -88 -89 -90 -91 -92 -93 102 -95 -96 -97 -98 -99 -100 -101 -102 -103 -104
leaf_value=-0.056718597489036605 -0.082223851082401864 0.0090729852697123813 -0.085939043666860782 0.0082426728576884545 -0.076203027037047621 0.035475188949701982 0.022136011278503755 -0.0024220941737296792 -0.018375183597495938 -0.025903612535937717 0.045096102056356217 -0.0043206963827522394 -0.0038143474309460671 -0.060863995854262498 -0.079371362953564784 -0.0074398003136449137 -0.081996638465583249 0.089976121930048003 -0.018556372286363428 0.015994147075761456 0.014105174964211166 0.0020968865489411669 0 -0.041552418025304072 0.026054977010035663 -0.031086273183472565 0.028410575924155995 0.023499730312270956 0.070634701421817506 0.040352552757654245 -0.019801567055482808 0.026955785577345955 0.082673870002525962 0.038881366430471298 0.04703679895335499 0.025068610104676755 -0.038288898700051775 0.058847754231269145 0.025401403444820406 -0.043881186608202512 -0.0539136593614215 -0.0094336234142041939 0.066501404917877871 0.0039811233773477646 0.024392584681512432 -0.061148569126179386 -0.0057872346532916114 -0.0072839327441936875 -0.016317682855065581 -0.011959778346331967 0.0010880470629602431 -0.056546169874391296 -0.040022957528113634 -0.0025756235133935238 -0.039410236097954979 0.0014394735461870419 -0.011666215492470768 -0.0036737170448613633 0.073438420291608478 -0.0208625555364839 0.0055096189602070588 -0.019598795523185442 0.023198464182197839 0 0 0 0.0029465728087869226 -0.097697030758598535 -0.011685317607500998 -0.018356412629078629 -0.014229064497883186 -0.0079953476369301318 -0.0052257512309149007 -0.020796801106418374 -0.041030834659936621 0.023339965075287631 0.0039165123453111118 0.013299908642337335 0.013164406376666405 -0.046107171818528386 -0.027897908619212281 -0.0038468025276288259 -0.0022602876478135881 0.040629856501362423 0.0085891251904907512 -0.021761410269391258 0.060372703414847732 0.077148792651755921 0 -0.072865739183598427 -0.01442501623318267 0.0027227522915315508 0.01535452079393522 0 0.0033302027600402833 -0.0029194873023823229 0.00094845692452835511 -0.030513001695911642 0.040151689531007145 0 -0.0084951924431113813 0.02197686469740949 0
leaf_weight=2.7113458781968798 54.004568504577037 2.2858686167746844 54.075736672530184 1.1610889933072046 22.765233205165718 5.4854806600487809 1.3001038166694336 0.9741205768659692 0.88918932341039458 1.3819003286771465 2.2958553601056333 0.40642515989020367 1.3271350925788343 12.355830670450814 5.2789407798554739 0.7104837503284237 16.3464724393707 149.8771670081187 1.1915807760669834 0.78433372220024367 1.496765889693054 0.44180818181485193 4.3784061276819539 2.2929450394585711 8.5101811171043646 1.1241801793221382 2.8108392330468637 0.78250543214380597 27.190280773444101 3.4692082154797381 2.9762648930773166 6.5830260281218207 67.744237930863164 11.307083443738518 5.9406410100200446 4.135199909331277 1.0452711435500521 14.68233760804287 1.1425032301340245 7.2607573661953193 11.810340985830402 0.83945938106626306 14.116623002832055 0.6914504189044236 1.8083276662509891 3.1079192004399374 3.0784146429505199 4.4574310190509996 2.1603478114120662 1.0536634497111652 0.87260052189230808 5.6030104737728834 3.2348169237375259 1.2252320656552909 5.7774718321743421 0.75259150564670596 0.50800867751240708 1.1280435603111971 25.125743936863728 2.952349072220386 1.0561773718800398 1.1032998010050503 2.1784420022740965 0.97133242292329747 0.56073648203164417 0.6598275322467092 1.0709561388939617 158.86102697254682 1.1368711073882871 0.49850040255114425 1.4273263902869073 1.9535226979060096 0.59817755594849487 0.53981763729825594 4.2747512808709871 2.7292413667310029 0.85953084379434574 1.0305339442566035 1.3421316517051309 1.8961697476916013 3.0988520504906774 0.88118691742420185 0.59748477581888426 5.269064059946686 0.61815492063760791 1.4923594263382254 18.723387207370251 57.758838334353641 1.0052617620676754 5.2202541451260913 1.4570495656225828 0.55647143768146634 0.78002785006538011 1.0861823102459309 0.42398364935070276 0.57298612431623031 0.77729639038443565 2.7997167324647307 1.9682923606596889 0.90000988915562619 0.60383286396972913 0.80907594971358776 0.67099627759307623
leaf_count=96 2166 60 2094 39 875 101 38 25 23 39 50 11 49 441 233 28 644 1725 53 14 23 12 136 67 228 39 80 13 433 67 96 139 898 236 106 93 40 236 27 221 420 35 244 24 42 142 99 132 79 37 38 230 136 40 223 26 22 39 371 94 32 38 56 20 14 15 30 6475 26 27 49 66 26 32 179 72 19 30 27 67 88 35 20 124 17 51 333 867 27 226 62 16 23 39 15 23 34 89 45 19 23 21 23
internal_value=0 0.0526113 -0.070296 -0.0352228 -0.00154399 0.0661491 0.042494 0.015806 -0.0434 0.0433407 0.0609356 0.0388907 0.0100936 -0.0684783 -0.0245392 -0.0897949 -0.0563135 0.0817699 0.0680341 -0.0169399 0.0549097 0.0406215 -0.0179517 0.0272876 0.0372628 -0.015856 -0.0173254 0.00776494 0.0591187 -0.00182096 -0.0412381 0.0632847 0.0771421 0.023278 0.0231218 -0.00622278 0.0111375 0.0534404 0.0536072 -0.0239696 -0.0434053 0.0135941 0.0597667 0.0127875 -0.0170422 -0.041841 0.0210658 0.0145362 0.00989134 0.0301017 -0.0147845 -0.0387491 -0.0200264 0.0386651 -0.0307724 -0.00441073 0.0285753 0.0346627 0.070915 -0.00751189 -0.0220697 0.00252648 -0.00141329 -0.0481175 -0.0512848 -0.0242919 0.0307948 -0.0937311 -0.0815009 0.0180641 0.00305211 0.00837656 -0.0748801 -0.0637197 -0.0299169 0.0141589 -0.0180145 -0.00268826 0 -0.038443 -0.0220195 0.0151488 -0.0508521 0.0362143 -0.038841 -0.0113611 0.0594479 0.0755823 0.0354461 -0.0700683 -0.00544065 -0.0108694 0.00408237 -0.0154031 -0.00924062 -0.0386508 -0.0047727 -0.0248012 0.0357719 -0.00784154 -0.0595655 0.01745 0.0124977
internal_weight=896.046 512.631 383.415 138.091 102.624 410.008 164.675 54.6333 53.1782 49.4455 104.284 43.2237 60.391 83.4576 20.7339 245.324 27.5506 245.333 95.4559 29.8148 41.4932 33.8995 22.8254 37.5656 28.9771 7.95228 9.06336 15.688 36.5007 15.4549 29.453 33.7733 86.3925 14.8707 10.9007 8.58849 9.60917 16.0095 18.6483 16.4933 14.1267 14.7343 16.4025 4.64345 10.7004 5.33003 8.5639 12.9676 6.29555 13.4888 11.2041 13.2162 7.61322 7.16587 6.93856 7.42014 4.75451 12.4351 26.6225 3.73485 9.52247 2.2458 7.12208 13.3424 12.3711 4.78732 7.31414 217.773 58.9123 3.73332 2.72743 3.76185 23.3634 6.72297 7.36096 3.5687 1.98371 2.22211 2.23132 2.556 3.85144 3.05963 3.30883 6.34002 9.37127 2.11051 19.1652 61.06 3.30112 5.62668 2.51323 1.09629 2.16151 4.06245 0.922484 4.84774 1.28531 4.8366 2.65974 2.03688 12.9597 1.68168 1.45102
internal_count=23987 9595 14392 4616 2742 6853 3514 1471 1754 988 1888 944 1626 3145 726 9776 1073 3339 1614 853 745 745 742 884 645 243 347 385 659 493 979 572 1267 351 253 239 240 285 369 515 468 400 304 127 370 225 200 360 172 312 429 502 272 146 262 221 123 275 394 107 370 65 226 454 434 132 179 8703 2228 122 87 108 901 285 296 107 58 83 50 82 114 91 116 154 289 68 345 944 77 237 94 48 74 135 42 202 56 134 69 45 464 59 46
is_linear=0
shrinkage=0.05


Tree=1
num_leaves=127
num_cat=0
split_feature=34 6 34 34 6 34 18 88 34 0 88 6 18 88 8 34 88 0 6 6 0 34 69 34 6 61 14 34 69 6 6 6 0 18 3 88 88 88 13 0 0 0 0 0 64 40 11 88 34 69 3 9 40 40 6 3 53 32 14 12 33 6 58 34 26 15 74 30 6 56 33 9 9 15 18 53 34 33 15 11 44 69 6 32 37 32 20 88 0 69 6 77 42 88 0 88 60 32 18 77 50 22 8 18 18 88 40 18 7 34 8 12 6 40 11 11 6 13 40 0 6 33 42 18 40 12
split_gain=2124.21 345.755 261.486 165.794 108.49 93.7903 73.0868 51.516 47.967 47.4807 37.8728 31.4192 28.2922 27.653 22.4049 22.0281 20.2607 19.1287 17.7254 17.5881 18.3799 16.6104 15.2556 14.4876 14.3927 14.11 13.933 13.6709 11.8658 11.4299 10.9971 10.6381 10.5263 10.4593 9.71299 9.57044 9.38704 9.17502 8.86691 8.54147 8.53822 8.0434 7.97835 7.73736 7.64631 7.59576 15.2782 7.59461 7.16707 7.60427 7.15791 7.1325 7.05223 6.85052 6.76939 6.74672 6.63512 6.55506 6.50281 6.7599 6.33707 6.17585 6.00777 5.90864 5.72179 5.40185 5.08154 4.90973 4.81048 4.22955 4.11973 4.07772 3.97464 3.92298 3.90859 3.73837 3.58398 3.44939 3.2533 3.20987 2.94043 2.85039 2.64069 2.61859 2.5367 2.4952 2.4877 2.41219 2.34908 2.29438 2.21639 2.20618 2.10152 2.05987 1.98245 5.12732 2.19334 1.88828 1.87894 1.83781 1.80478 1.77238 1.72867 1.97482 1.68856 1.68815 1.68574 1.61521 1.59447 1.44384 1.38091 1.32737 1.29282 1.26472 1.12554 1.84995 0.988158 0.97315 0.927522 0.833046 0.747259 0.672796 0.629782 0.625217 0.606411 0.587873
threshold=17.172674351639284 3.829478609625669 10.562245489559785 22.505944809038549 3.9835648043938243 12.832048853593969 6.2500000000000009 1.0000000180025095e-35 7.0250001645948252 311.50000000000006 1.0000000180025095e-35 4.57021984426349 8.8100000000000041 1.0000000180025095e-35 0.21177553894485973 8.3393910599288059 1.0000000180025095e-35 200.50000000000003 4.2301089168821173 3.2878676470588242 111.50000000000001 5.7259245847882143 1.0000000180025095e-35 10.049473344010929 3.5909228234001653 1.0000000180025095e-35 7.1500000000000012 29.806010336612996 1.0000000180025095e-35 3.6344644750795339 4.6518394433348371 3.9835648043938243 204.50000000000003 7.8600000000000012 29.500000000000004 1.0000000180025095e-35 1.0000000180025095e-35 1.0000000180025095e-35 7.0500000000000007 200.50000000000003 115.50000000000001 154.50000000000003 137.50000000000003 287.50000000000006 1.0000000180025095e-35 2816.5000000000005 0.33347409909909914 1.0000000180025095e-35 13.954641160927208 1.0000000180025095e-35 914.50000000000011 0.40005549389567158 1126.5000000000002 1034.5000000000002 3.6655944415851782 331.50000000000006 1.0000000180025095e-35 37.126834460123085 9.3500000000000032 0.52493411751208841 7.5067212018430203 3.6938992618323927 1.0000000180025095e-35 15.000528609654241 3.5000000000000004 9.3500000000000032 24.500000000000004 1.0000000180025095e-35 4.2398153128922367 1.0000000180025095e-35 -5.9805468383368234 0.21718314365373192 0.39997446047758917 9.5500000000000025 7.910000000000001 1.0000000180025095e-35 11.684236608089547 13.179689900987482 8.0500000000000025 0.47372604802945367 473.00000000000006 1.0000000180025095e-35 4.4654177640408541 52.245462392399652 189.50000000000003 46.851962607590607 6.9500000000000011 1.0000000180025095e-35 191.50000000000003 1.0000000180025095e-35 3.991484375856075 63.000000000000007 2.5000000000000004 1.0000000180025095e-35 230.50000000000003 1.0000000180025095e-35 1.0000000180025095e-35 29.242813349325353 7.8600000000000012 25.000000000000004 0.29285714285714287 127.50000000000001 0.046538701031486052 7.1299999999999999 8.4900000000000038 1.0000000180025095e-35 1775.5000000000002 9.4700000000000024 0.038507877664504177 25.244112663850071 0.028415914549821678 0.42531336141883813 3.6811616490211159 742.50000000000011 0.20897921965734031 0.22451643842915761 4.0589106257537191 9.9500000000000011 524.50000000000011 363.50000000000006 3.3154442456768041 8.9784877595048993 3.5000000000000004 9.5300000000000029 2563.5000000000005 0.39395922576550851
decision_type=2 2 2 2 2 2 2 2 2 2 2 2 2 2 2 2 2 2 2 2 2 2 2 2 2 2 2 2 2 2 2 2 2 2 2 2 2 2 2 2 2 2 2 2 2 2 2 2 2 2 2 2 2 2 2 2 2 2 2 2 2 2 2 2 2 2 2 2 2 2 2 2 2 2 2 2 2 2 2 2 2 2 2 2 2 2 2 2 2 2 2 2 2 2 2 2 2 2 2 2 2 2 2 2 2 2 2 2 2 2 2 2 2 2 2 2 2 2 2 2 2 2 2 2 2 2
left_child=1 2 6 4 29 7 21 9 37 15 24 35 16 22 25 74 39 31 109 -15 -21 36 44 90 125 33 -25 47 41 114 -19 -17 85 40 -30 50 121 43 -24 66 -12 -27 124 51 -10 116 -47 -20 78 100 80 -8 73 61 -35 63 84 -13 105 101 -44 111 112 87 72 81 89 -52 -49 99 -41 -63 -58 98 88 106 -71 -67 -18 -65 -6 -54 104 107 -23 122 -51 -34 -3 -7 -9 -69 -45 -57 -59 -96 -97 -82 -37 -64 -50 -60 110 -104 -70 -31 -38 -11 113 -5 -55 -26 119 -107 -2 -116 -28 -84 -75 -16 -86 -1 -14 -61 -39 -4
right_child=3 5 10 18 11 12 8 23 13 83 14 57 32 19 62 17 48 30 27 20 -22 56 38 26 53 28 45 -29 34 58 -32 -33 55 54 -36 52 75 42 -40 70 -42 -43 60 92 -46 46 -48 68 49 86 67 -53 65 102 -56 93 64 94 59 123 -62 71 69 79 -66 77 -68 91 82 76 -72 -73 -74 118 -76 -77 -78 -79 -80 -81 97 -83 117 -85 120 -87 -88 -89 -90 -91 -92 -93 -94 -95 95 96 -98 -99 -100 -101 -102 -103 103 -105 -106 108 -108 -109 -110 -111 -112 -113 -114 -115 115 -117 -118 -119 -120 -121 -122 -123 -124 -125 -126 -127
leaf_value=-0.0021345901874976758 -0.080003874594852406 0.052977517583763234 -0.073632850958212065 -0.075463228519477329 0.017503669695918805 -0.031381253714078079 0.053048582239838139 0.074512454012342688 -0.057248012796195603 -0.059545606754626092 -0.0035815813669840598 0.072152055902739251 0.080294723550817362 -0.032905539684184623 -0.072588857701609028 0.01709052190602987 0.013883866123562294 0.00067401336873707679 -0.064968080850182838 0.060961331536845298 0.024213719921513062 0 -0.015454478608186703 0.0066729549278372342 -0.003565737751499422 0.010532682061248059 0.063650487891901628 -0.081843141357085814 -0.02478631731516287 -0.066172450135795077 0.071622304691715211 0.071406234863176973 0 -0.039381034693884855 0.042146544714328216 -0.0085388113265286638 0.024126895282619226 0.080160123733213517 0.042807952997206765 0.017569828652635937 -0.049709461069859261 -0.036178251417781505 0.014979323119903774 -0.050037702457702053 -0.0067350741473453145 -0.0015144540195292518 0.066301331036331831 0.041433098798262208 -0.032047989343953365 0.0061656276020415415 -0.043719771055968852 -0.00063780552927299335 -0.042099680287348062 -0.035321817026364909 0.032059939146162772 0.016109541479873191 -0.043887163702485861 0.048667466561409758 0.058208645961194377 -0.053491434762985304 0.057676798966695766 -0.026443535220030446 -0.00075262965862948222 -0.034469143151012564 0.032871399969107595 -0.029998447842348331 0.049003293728203792 -0.00053860804740861132 -0.0029501621407321023 0.018624460888819368 -0.058406474858043379 0.041228701960835966 0 0.0023838624566456367 0.074801343115808758 0.052375164323634309 -0.027013386125682132 0.028492963731692862 0.070856905777370291 0.011048140875387221 -0.0092489349275510415 -0.0038104081177910221 -0.021664556327417341 0.00080858292462163877 -0.064622750414184887 0.033729890688454889 0.049495240407206688 0.047378267224446727 0.0029639333535116715 0.0081547436946361827 0.089645181963821638 0.053483704210009975 0.010161389677001535 0.064559027443410286 -0.04398359859286978 -0.0028513780980654662 0.048855397544835338 -0.051614838726211254 0.034428099616062427 -0.063070005813244512 0 0.00050177045800271281 -0.0022978433728613359 -0.056694383204562673 -0.052321951318108552 -0.025437477643924324 -0.023316857100983787 -0.0065892673824146713 0 -0.089894828806715163 0.0034971005464845351 -0.053495860441748394 -0.010414383769079553 -0.052736801644397382 -0.0056953198567803835 -0.059866318654106382 0.08323638941764061 0.0039865524151515954 -0.034752603183993612 -0.016034868097310171 -0.021117225302539351 -0.043570145718485748 0.043484253837559883 -0.0072300834696960971 0.059013333845783916 -0.045194924222624139
leaf_weight=1.7075614947825695 68.638911777175963 5.6945219784975034 45.877283618785441 68.911371927242726 1.2907205745577837 7.4232268482446688 38.374348785728216 87.716500747948885 12.631951848044993 8.9000238105654699 15.916578276082872 13.119537554681303 20.529550127685074 8.1091297566890699 16.346463000401862 13.554945968091486 4.5152374822646371 39.048401210457087 19.902893276885152 58.67638298496604 86.385851822793484 1.9408276379108453 9.4345981143414992 10.434804886579512 2.3810460641980162 21.172175331041217 38.624598398804665 45.170276871416718 5.7531827641651025 21.565131138078868 5.3824724070727816 33.871937870979309 3.6629845397546896 3.5256297253072253 30.524830127134919 2.32821553945542 3.0088304635137328 66.136108309030533 16.999474031850696 1.447049200534823 28.157842342276126 14.758668340742586 12.325458642095326 1.971325110644101 17.900032158941031 11.466358825564383 27.446938246488571 1.7203990276902938 5.2678769864141968 5.5616614110767832 2.2756297532469016 7.0943381413817397 13.800372218713164 4.2228042595088509 11.527658194303511 4.113169297575948 11.24743427149952 3.2073112428188315 2.0046616718173009 3.6213375385850668 43.044071231037378 2.2358126770704967 1.619544170796871 6.6131212245672923 4.2655998766422263 2.4983061142265788 3.0412753820419303 3.069510331377387 2.432166667655113 6.0940868388861427 15.133994672447441 6.7729784771800041 8.6491999635472876 2.6811465397477141 77.54203013330698 11.430391890928149 9.9052501535043103 8.1431046072393638 8.5499105900526029 6.9185192342847586 3.8119243998080519 8.0103950966149569 8.1356273274868709 2.8247327152639619 14.982575980946423 8.2896739430725557 10.177733793854712 8.7265877015888691 4.1505795046687126 5.6264917887747288 177.82052841037512 3.2072544619441032 2.0766673013567924 10.453726336359978 2.5651393984444422 3.0437959283590317 3.9167288159951568 24.653611554764211 17.956656666472554 6.7201143074780703 14.133078724145888 2.7412396688014269 2.1284642089158323 18.712603356689215 10.791667273268102 10.048637673724441 2.4897034112364054 2.2588390856981269 2.0446570701897135 353.99378912523389 3.4098736140877008 3.7203545868396759 1.6237947437912215 22.675664654001594 2.3506997674703589 9.9221789771690947 55.587890416383743 5.2816477119922629 2.3465238958597183 1.605905408039688 2.7903029359877101 3.6907008429989219 6.4563448764383784 1.6065632458776233 22.962796576321125 9.4909068644046766
leaf_count=27 1598 27 820 1577 7 59 210 191 98 160 127 61 62 34 216 60 32 147 396 117 259 17 67 32 31 152 75 1138 50 396 14 112 53 22 164 19 21 128 77 11 228 124 49 26 124 35 46 10 42 44 37 62 122 41 52 44 137 29 5 56 122 25 17 69 28 26 13 28 32 40 201 47 71 24 225 66 157 59 41 53 44 68 113 35 176 51 55 60 20 43 393 15 19 56 47 29 31 333 143 84 97 36 33 190 147 134 24 35 24 8738 24 45 11 302 36 227 121 69 22 15 22 61 36 19 45 138
internal_value=0 0.0348103 0.0105696 -0.0665899 -0.0345561 0.0585381 0.0331742 0.0675036 0.0411421 0.0457453 -0.0281641 0.000336211 0.0238219 0.0243714 -0.0140227 0.0526945 0.00307965 0.03487 -0.083179 0.0353772 0.0394276 -0.0152778 -0.00523472 0.0776319 -0.0527688 -0.0035282 0.0635428 -0.0617781 0.0111966 -0.0632945 0.0107663 0.0566591 0.0455704 -0.0214809 0.0310176 -0.0128671 0.0191297 0.0590654 0.0220259 -0.0267757 -0.0336113 -0.00897864 0.0656547 0.0388223 -0.0289451 0.0678802 0.0466559 -0.0416177 0.0235492 0.0109434 -0.0318988 0.044731 0 -0.0300223 0.0136054 0.0269203 -0.0329343 0.0482407 -0.0463862 -0.00767948 0.0486952 -0.00215217 -0.0445198 0.0105886 -0.0141501 -0.0151516 -0.000132132 0.00728801 -0.0234065 -0.0259025 -0.0508693 0.0229702 -0.0255609 0.0194469 0.0707679 0.0371687 -0.00926296 0.012934 0.0539098 -0.011694 -0.043195 -0.02904 -0.029122 -0.0405699 -0.0539213 0.0655064 0.035766 0.0343545 0.0345709 -0.014612 0.0849634 0.0299347 -0.0222693 0.0531135 0.0197794 0.00587808 0.0280984 -0.0466176 0.0290921 -0.0528798 -0.00971538 0.0316355 -0.0440677 -0.0517274 -0.0444387 -0.0528985 0.00159293 -0.0506607 -0.0429058 -0.0877386 -0.0190042 -0.0379609 -0.0650398 -0.0455051 -0.0763545 -0.0510781 0.0760121 -0.0116442 -0.0170091 -0.0689067 -0.0595475 -0.033627 0.073535 -0.0435215 0.0754811 -0.0697351
internal_weight=2288.98 1503.5 744.53 785.485 269.146 758.967 470.326 602.326 404.123 193.228 274.204 121.926 156.641 210.137 175.252 179.245 80.8775 91.8578 516.34 153.171 145.062 66.2031 56.9661 409.098 98.9521 131.337 143.561 93.4347 72.2089 147.22 44.4309 47.4269 75.7637 59.1277 36.278 96.0734 22.3272 193.985 26.4341 32.672 44.0744 35.9308 144.468 49.5167 30.532 133.126 38.9133 48.2644 48.2055 35.1404 38.3087 45.4687 57.7647 43.5839 15.0533 40.4881 43.8759 25.8525 66.3079 9.9738 55.3695 15.1102 43.9152 25.9212 24.1622 32.4522 16.091 8.55239 28.3615 24.339 16.581 9.00879 19.8966 25.3125 87.3871 16.9289 15.9993 10.6414 13.0651 13.5316 29.7563 21.8108 26.6411 13.9836 19.7137 35.2756 15.7394 12.3896 9.8451 13.0497 265.537 6.27676 4.04799 14.5669 12.733 9.52566 6.96052 28.4655 20.2849 8.33966 19.401 4.7459 28.4737 20.8411 13.2238 56.3341 5.49853 11.1589 34.769 422.905 7.63268 6.1014 19.5762 32.7243 80.9118 12.2729 94.2125 13.4173 5.02767 17.9524 17.7729 5.39826 26.9859 5.2279 89.0989 55.3682
internal_count=23987 7790 4940 16197 3977 2850 2087 1728 1437 835 2853 1144 1122 776 1459 605 638 333 12220 410 376 650 366 893 1394 919 309 1905 490 2833 161 172 484 429 214 947 199 661 144 327 355 276 344 317 222 277 81 767 311 238 464 272 483 436 74 335 451 197 972 116 171 148 540 235 236 275 115 80 371 298 212 72 208 208 272 111 197 85 73 122 384 190 361 230 215 149 99 113 47 102 584 43 45 100 136 107 60 377 162 101 139 41 288 223 179 856 45 195 460 10315 65 76 242 436 1861 263 196 182 46 231 198 88 98 75 173 958
is_linear=0
shrinkage=0.05


Tree=2
num_leaves=126
num_cat=0
split_feature=35 5 35 35 5 5 35 35 88 1 88 5 1 88 1 20 88 18 5 35 1 88 62 1 35 49 20 10 88 88 20 1 88 12 35 50 64 77 16 88 38 40 63 20 35 50 43 1 5 13 1 11 32 20 1 35 12 1 1 1 40 9 1 50 5 32 65 12 61 18 88 53 39 35 41 50 1 12 32 12 35 18 12 35 77 44 11 17 1 40 38 1 9 11 38 41 64 18 1 16 7 7 18 32 40 57 17 10 16 13 35 5 9 35 57 40 35 35 12 18 35 50 13 12 13
split_gain=1983.55 245.419 159.45 158.906 94.5483 73.524 54.1168 36.3184 28.0189 52.3538 26.5404 23.3155 20.6601 20.4279 31.1675 20.3655 18.03 17.8257 16.7357 20.6865 14.0013 13.4575 13.4561 12.3004 11.9416 8.69253 8.54673 8.08083 7.94168 7.69349 7.44611 7.1236 7.11696 7.07783 5.9315 6.87324 5.8238 5.8311 5.25274 5.04397 4.95801 4.81776 4.79486 4.78636 4.71798 4.63702 4.55997 4.5395 4.52997 4.37897 12.2254 4.35055 3.96825 3.8503 3.78645 3.58233 3.77921 3.36813 3.7004 3.22216 3.06469 3.0062 2.95998 2.91405 2.90415 2.84403 2.74732 4.48911 3.14198 3.45818 2.71951 2.5297 2.39349 2.36945 2.32476 2.29206 2.29183 2.29162 2.26939 2.17532 2.15713 3.79257 2.13495 2.08867 2.08699 1.93404 1.77495 1.74353 1.72876 1.51446 1.51317 1.48754 1.41713 1.41649 1.72181 1.3488 1.34022 1.33375 1.3018 1.24597 1.21888 1.36169 1.19888 1.18859 1.11304 1.24734 1.03838 3.51227 1.02794 1.02578 1.00466 0.911623 0.906158 0.876362 0.785427 0.749349 0.525201 0.521146 0.381948 0.324749 1.53221 1.56002 0.272054 0.191319 0.0878016
threshold=2.9287948771689907 3.9500000000000006 2.082561689515166 3.1572533592625938 3.9500000000000006 3.1500000000000008 2.4178748560045613 2.5810772045396662 1.0000000180025095e-35 5.7153802534577958 1.0000000180025095e-35 4.6500000000000012 5.2122109552252045 1.0000000180025095e-35 5.7446031891748186 3.9500000000000006 1.0000000180025095e-35 8.9100000000000037 4.3500000000000005 3.4277098115157369 5.7087686410618739 1.0000000180025095e-35 1.0000000180025095e-35 4.791641144189394 2.540360008690794 2.5000000000000004 7.2500000000000009 0.24061200487251652 1.0000000180025095e-35 1.0000000180025095e-35 5.2500000000000009 5.4183177007383536 1.0000000180025095e-35 0.27830569251456755 1.6963963470320715 0.26136363636363641 1.0000000180025095e-35 63.000000000000007 6.7500000000000009 1.0000000180025095e-35 2000.1250000000002 1103.5000000000002 1.0000000180025095e-35 5.1500000000000012 2.7050216971655505 0.70714285714285718 958.50000000000011 5.7087686410618739 3.7500000000000004 8.0500000000000025 5.4094089116575796 0.18706876117827057 29.605717309583046 7.0500000000000007 5.2496487501035594 2.77262175971588 0.64518436476071817 5.1209788959100075 5.6149496020273224 5.5471267646873921 466.50000000000006 0.1481783086017614 5.4992132179189657 0.30384615384615393 4.8500000000000005 38.233027844945525 1.0000000180025095e-35 0.14048793859649125 1.0000000180025095e-35 6.6800000000000015 1.0000000180025095e-35 1.0000000180025095e-35 4.5000000000000009 3.3107067921049667 1496.8750000000002 0.54195804195804198 5.6149496020273224 -0.3224685150431405 33.708646429352484 0.81261623985775311 3.2576635855349338 8.8300000000000036 0.75013661202185811 3.3704570698848855 61.000000000000007 3447.2500000000005 0.14942096132964758 8.2500000000000018 5.7698810594618948 1009.5000000000001 2505.4500000000003 5.4617086595848852 0.33336754944227748 0.033985365601524237 2997.733333333334 2209.1250000000005 1.0000000180025095e-35 7.2500000000000009 5.9388537289014298 8.1500000000000004 0.061973451327433635 0.056652402256370367 7.8900000000000006 45.023377796820689 2816.5000000000005 1.0000000180025095e-35 7.6500000000000012 0.36115097831467091 9.1500000000000004 9.8500000000000032 2.9487117462188328 4.5500000000000007 0.30749918664346471 3.0577780541927813 1.0000000180025095e-35 2170.5000000000005 3.4176711591887563 3.2207588196509938 0.84801700318809792 8.9300000000000033 2.3125996059089595 0.080128205128205135 8.3500000000000032 0.84414688759516354 6.1500000000000012
decision_type=2 2 2 2 2 2 2 2 2 2 2 2 2 2 2 2 2 2 2 2 2 2 2 2 2 2 2 2 2 2 2 2 2 2 2 2 2 2 2 2 2 2 2 2 2 2 2 2 2 2 2 2 2 2 2 2 2 2 2 2 2 2 2 2 2 2 2 2 2 2 2 2 2 2 2 2 2 2 2 2 2 2 2 2 2 2 2 2 2 2 2 2 2 2 2 2 2 2 2 2 2 2 2 2 2 2 2 2 2 2 2 2 2 2 2 2 2 2 2 2 2 2 2 2 2
left_child=1 2 15 4 33 24 13 12 9 17 20 25 27 14 49 70 53 31 80 29 36 30 48 -24 32 78 42 45 47 116 104 40 93 122 59 -36 75 74 -30 -35 -8 -29 46 72 115 -7 84 -14 -18 50 102 86 60 91 -39 112 -57 61 -59 -32 -41 -27 82 -48 73 -13 67 -23 69 -68 -1 -55 -34 109 -38 123 -64 -72 89 92 81 97 -19 117 -10 -46 -28 -52 -11 -12 -33 -9 -16 -4 -95 113 -69 -5 118 -62 101 -26 -3 -81 105 -17 107 -51 -77 -31 -97 -80 -53 -54 -100 -44 -20 -66 -67 120 121 -15 -2 -6 -70
right_child=3 6 5 18 10 7 8 16 26 88 11 65 28 119 79 21 22 62 19 -21 -22 66 23 -25 100 57 51 41 38 64 34 90 43 39 35 -37 37 54 -40 52 -42 -43 44 -45 85 -47 63 -49 -50 106 87 55 95 71 -56 56 -58 58 -60 -61 99 -63 76 -65 83 98 68 96 124 -71 77 -73 -74 -75 -76 108 -78 -79 111 103 -82 -83 -84 -85 -86 -87 -88 -89 -90 -91 -92 -93 -94 94 -96 110 -98 -99 114 -101 -102 -103 -104 -105 -106 -107 -108 -109 -110 -111 -112 -113 -114 -115 -116 -117 -118 -119 -120 -121 -122 -123 -124 -125 -126
leaf_value=-0.050955850478586633 -0.078329575514049232 0.026912814830084328 -0.067393654081622664 -0.081535194000378466 -0.052351271247754516 -0.011474622823534928 -0.015623229485202218 -0.035984339816895257 0.0080479380407350795 -0.012241120830920561 0.016476581505264948 0.070365112275826508 -0.012863137522946251 0.054556360582069488 -0.04973962012330304 -0.016837989735727393 -0.039180215815970053 0.036233839353237755 -0.058395966437522928 -0.079348434452145372 -0.078867773553702156 0.0063582117307262251 0.038329302542449123 -0.011457402077711662 -0.051865401827543824 -0.012779145070482133 -0.014416691879514599 0.055068513766297067 -0.017097725207268679 -0.022488024261890581 0.064318623783608461 0.002048653814441664 -0.031016682873912495 -0.067797179992911183 -0.027228069140877373 0.03552748829539281 0.02005645635609864 0.044761155516469114 0.026489838098038759 0.035316267826779831 0.030999439525718153 0.02973233046227149 0.070495521909361966 0.032173645807405643 0.029871313592799726 0.049276726220113344 -0.00059684545902918373 -0.06735505193468648 0 0.012522989846415922 -0.021478996079866267 0.069306112622800273 -0.0054966283623506555 -0.041965323762968333 -0.0093435127174881661 -0.0014776291537418342 0.049976100508665647 -0.03323523479555867 0.014012552647058699 0.011807778294235766 -0.039710781324756153 0.043890476275926127 -0.0026450510901228968 0.043971650604379145 0.0087138718363274567 0.05420020888850207 0.025909678389735832 0.035210277288052899 0.055266779389268911 0.062916840615156219 -0.030420882392217376 0.017242317987970907 0.0086766160223814542 -0.050488509660796925 -0.031708054725199095 -0.021730723812166147 0.043764042434560835 0.022981728031104799 -0.043215806505535886 -0.016652934818928787 -0.084709527283276159 -0.0047845676532197404 0.069798150632246259 0.034442968739292833 -0.037850199836595377 -0.014236664101612749 0.034493571585347292 0.01578186977513087 -0.073266291451952223 -0.022245654755077119 -0.03335310326213884 -0.063859128169361637 0.0015165215161236888 -0.047918929884578944 -0.0035513110549318899 -0.0060197050998249029 0.067825666500625922 -0.057193175412620693 -0.0076121157961388979 0.0047928755217497522 -0.074623335356583345 -0.0030919905392761456 0.066749191553969051 0.027521143533684997 -0.026902820070246553 0.022064048474533436 0.068713390552916906 0.063552086376878508 0.021038646263970957 0.0033412489509055984 -0.055965816457456602 0 0.040287195860210463 -0.039762130949180602 0.025129466924758787 0.034309498732585791 -0.0089257359700609159 -0.020272940819389112 0.01568747573035769 0.084085907453950781 0.057070009832644701 0.07932970245871046 -0.025299364642599666 -0.010720514107604284 0.079936894241751932
leaf_weight=3.1257630586624128 50.070774869062006 4.7228205315768745 7.6855290234088924 32.684381309896708 9.0208565145730955 13.402042651548983 6.1938978359103194 31.751074155792594 4.9016435220837611 1.9931396655738343 3.754932230338456 14.895034665241839 18.431531084701422 18.824384089559317 5.6452297903597337 2.6449044831097108 19.185048423241827 11.149067427963017 22.603919383138422 61.976988133974373 9.7685718480497581 6.4149958752095726 27.485145140439272 21.119514342397451 10.574280126020311 2.2837558574974564 2.5396356806159011 34.8581304512918 9.1790417116135377 10.212339808233088 20.461288008838896 4.1532888971269113 12.019073914736515 20.670239646919072 5.2173729576170471 14.00681779719889 1.8512689024210001 7.6157648731023055 20.711132675409317 2.5754724647849825 29.749805709347129 54.998326566070318 13.689096866175538 4.8794457763433448 6.6415729485452157 3.010942328721284 4.7741327621042755 4.2239259276539078 11.266857654787598 6.2449903190135947 5.3085771948099119 86.57179618999362 5.2172001879662293 1.6302201151847828 4.4912875080481172 3.7755669802427283 28.880426509305835 4.736259892582896 13.888766054064034 4.2578312475234261 2.9660016223788261 10.762093229219316 4.0284553319215757 11.949671804904936 1.3251804523169974 4.7306001074612123 11.825112666934727 10.776305701583624 12.955457374453543 25.364591702818871 2.4095950517803431 4.713507991284132 4.5984628554433575 6.5564185241237274 9.9682099279016239 2.0561115294694896 5.4239939451217651 3.8758775815367699 10.976388309150931 2.3501592613756657 365.00225329212844 2.5154490806162348 27.739886622875929 3.0306331794708967 3.2941716089844704 2.7860087156295776 2.9368862919509411 5.1908059418201447 12.055216969922183 4.3128599524497986 7.3637520354241133 9.1277570836245996 1.3859729953110216 4.8390955068171007 4.1895025856792927 1.5991898383945216 13.078232184052467 27.196853777393699 2.6039854325354099 1.9862276762723921 28.492963021621108 2.0371125638484946 19.65840282663703 1.7549839820712803 3.3295683283358812 3.6538533419370651 85.777656406164169 9.5169778950512391 1.5715422984212635 5.0276859598234287 14.3017366155982 1.4536936664953835 8.7544659338891488 2.8287987243384123 2.6988165788352489 5.8825303986668578 1.2027420867234457 3.814353046938777 2.4280044808983803 102.21572098508477 31.513036876916885 120.40255881845951 1.7274494767189015 1.2229314441792656 48.051884155720472
leaf_count=51 1155 28 133 746 147 118 59 511 34 28 35 57 191 45 101 32 283 58 467 1431 213 37 185 281 209 27 22 183 76 151 98 50 170 436 46 103 18 48 164 19 222 319 53 32 58 12 33 71 114 19 27 316 72 24 53 35 176 63 152 34 53 78 38 66 17 36 60 37 44 80 32 54 40 141 144 32 40 34 157 33 8496 36 111 24 24 28 18 18 262 52 88 183 15 73 52 21 37 573 28 23 616 25 61 15 37 42 239 33 17 63 283 17 40 53 23 34 19 56 26 218 84 299 37 22 119
internal_value=0 0.0383578 0.0133701 -0.06307 -0.0281372 -0.00604542 0.0576572 0.00582381 0.0410375 0.0206434 0.00082028 0.0184583 0.0216893 0.0692674 0.0533814 0.0501914 -0.0141038 0.0340021 -0.0778408 -0.0595903 -0.0283382 0.0539024 0.000524834 0.0168005 -0.0483121 -0.0012599 0.052794 0.0342782 -0.003842 -0.0356937 0.0317224 0.0117092 -0.0268968 -0.0632617 0.0403021 0.0177445 -0.0134542 0.00155455 0.0128224 -0.0481613 0.0226246 0.040114 0.034632 -0.00693736 0.0483685 0.00157285 0.0172045 -0.0256519 -0.0250022 0.0599405 0.0418095 0.0597823 -0.0334213 -0.0382008 0.0251272 0.0616635 0.0440115 0.0149143 0.000661588 0.0562789 -0.000810073 0.0334106 0.0551066 0.0316508 -0.0176651 0.0549557 0.0627966 0.0456246 0.0675262 0.0522673 -0.0193924 -0.000934664 -0.0198798 -0.0269128 -0.0222781 -0.0380424 0.0251462 0.000457514 -0.0260143 -0.0248742 -0.0826212 -0.0691826 0.0614506 0.00670513 -0.0119662 0.0162419 0.0123164 -0.00285228 -0.0663293 -0.0038425 -0.0210433 -0.0437041 -0.0400828 -0.0504446 -0.0302368 -0.0430288 0.0553023 -0.0716827 0.0323066 -0.0232149 -0.0669897 -0.0451604 0.060594 0.00294415 -0.00707239 0.00497482 0.0656516 0.0455856 -0.00157958 -0.013978 -0.0518919 -0.038675 0.0671389 -0.0211602 0.00960134 0.0620589 -0.0565588 -0.0117826 0.0452745 0.0776107 0.073238 0.0764288 -0.0771684 -0.0492214 0.0757544
internal_weight=2047.78 1273.6 555.859 774.184 231.035 364.41 717.74 285.094 297.228 109.851 127.092 79.5252 158.815 420.512 147.557 191.449 126.279 95.8021 543.149 115.75 47.5665 182.038 79.0566 48.6047 79.3155 52.1687 187.378 106.269 52.5456 53.7733 53.5716 47.4607 38.2111 103.943 43.9433 19.2242 37.798 23.9265 29.8902 52.1449 35.9437 89.8565 53.9188 21.497 28.9992 16.413 24.9196 22.6555 30.4519 136.42 34.8806 133.459 31.4746 47.2226 12.1071 127.982 32.656 31.6709 18.625 24.7191 7.5277 13.0458 48.3414 16.7238 29.9666 27.3564 128.467 30.2695 98.197 37.1897 9.41124 6.34373 16.6175 21.7964 11.8195 13.8714 9.45245 6.28547 20.4979 11.1363 427.399 62.3967 38.889 8.17017 8.19582 9.42758 5.47652 10.4994 14.0484 8.06779 11.517 40.8788 7.0312 16.7141 9.0286 23.9469 23.8545 59.8812 12.4614 4.95223 41.1044 12.6114 24.3812 4.10514 9.62833 6.29876 101.54 15.762 3.62765 15.24 15.9009 12.4301 95.3263 8.046 5.3028 19.5716 23.8067 5.13953 7.1586 272.956 170.74 139.227 51.7982 10.2438 61.0073
internal_count=23987 8170 5042 15817 3597 4119 3128 2769 1893 956 1445 751 1134 1235 589 923 1635 666 12220 2369 694 806 863 466 1350 581 937 632 502 938 392 419 500 2152 281 149 481 263 240 960 281 502 330 242 173 130 157 262 397 425 134 607 524 772 101 567 211 320 215 132 95 105 247 99 452 170 414 111 303 140 117 78 210 355 162 218 78 66 261 164 9851 1355 169 97 58 86 40 45 290 87 138 694 116 258 125 429 74 1319 113 76 850 234 89 48 111 74 291 52 49 214 304 174 356 125 51 87 486 73 62 646 428 344 1192 169 163
is_linear=0
shrinkage=0.05


Tree=3
num_leaves=127
num_cat=0
split_feature=34 6 34 34 6 34 5 5 6 1 1 6 34 6 34 34 1 6 1 15 48 34 5 34 4 1 32 1 34 19 41 49 4 19 65 49 34 44 11 48 57 49 32 69 44 4 6 34 1 6 48 6 40 53 4 40 1 32 13 44 16 48 23 6 12 44 1 6 50 34 1 41 40 6 77 1 19 48 34 6 50 77 12 34 6 1 11 32 40 13 49 6 38 13 40 15 63 12 40 1 20 41 17 1 13 6 11 6 11 34 34 20 19 36 19 11 32 77 4 32 34 5 11 1 6 6
split_gain=1678.94 215.636 144.056 135.121 105.923 48.573 32.3351 29.5738 21.8476 20.2355 19.7457 18.8737 17.2276 15.4797 13.8756 12.771 9.2222 8.36343 7.68299 7.53163 6.99705 6.52 6.05124 5.90734 5.98784 5.38254 5.16862 4.55308 4.41537 4.54646 4.31846 4.28056 4.27729 4.14108 4.13376 4.10738 4.07296 3.7902 3.74575 3.68847 3.64816 3.60755 3.38379 3.51289 3.3573 3.29483 3.24616 8.57053 6.95602 3.23895 3.17075 3.16734 3.16166 3.09093 3.02463 3.01518 2.93377 2.60369 2.54544 4.12482 2.541 2.49425 2.43959 2.39628 2.37438 2.34146 2.28075 2.25528 2.23697 2.18528 2.1833 2.178 2.16572 2.15472 2.14278 2.09477 2.06787 2.02715 2.01256 5.37759 1.98599 1.9468 1.78559 1.76496 2.1773 1.75383 1.6754 1.67092 1.62167 1.53951 1.52055 1.51793 1.487 1.46973 1.15036 1.13466 1.12377 3.12238 1.06944 0.975794 0.953731 0.89468 0.885655 0.839246 0.8327 0.705827 0.620981 0.618639 0.583789 2.60155 0.582375 0.519902 0.436173 0.408706 0.380559 0.287707 0.279893 0.286762 0.256359 0.247023 0.199503 0.281644 0.19688 0.171182 0.165561 0.338733
threshold=17.705074998496691 3.7748953486562615 10.562245489559785 22.936087435921891 3.9788282473314931 9.737485895728005 3.3500000000000001 3.1500000000000008 4.140085470085471 5.0782890901091458 4.886575525404063 4.57021984426349 7.0250001645948252 4.2301089168821173 28.234878695984836 7.2754690779115068 5.2122109552252045 3.6344644750795339 5.2600927804663344 5.6500000000000012 6.5000000000000009 12.502527621693753 2.8500000000000001 13.583176308598459 6.7135633652932718 5.4271478232179229 50.007774830205953 5.3057863027301417 15.517243188922313 0.89106674812954589 2412.5000000000005 3.5000000000000004 4.8322978221268906 0.69799689941471377 1.0000000180025095e-35 7.5000000000000009 28.091821017136525 858.08333333333337 0.50035816618911189 2.5000000000000004 1.0000000180025095e-35 1.5000000000000002 33.839829339628771 1.0000000180025095e-35 3447.2500000000005 3.4175922930736511 4.1004716981132088 7.7131741405483458 6.0342838271617802 3.643126684636119 6.5000000000000009 3.643126684636119 3570.5000000000005 1.0000000180025095e-35 4.1820210059610323 203.50000000000003 5.9309171654189532 48.75628865822533 6.8500000000000005 3256.7000000000003 7.3500000000000005 8.5000000000000018 0.70714285714285718 2.9960875259194593 0.19771780631725097 2200.6333333333337 5.8791343840901709 4.4254657234917234 0.22649572649572652 14.771275085167904 5.1845846780664209 2582.7500000000005 950.50000000000011 4.4398427923808788 55.000000000000007 5.8156208458941361 0.42614551505325066 13.500000000000002 29.648360948633975 3.6964495985102532 0.34523809523809529 75.000000000000014 0.68096698802220279 33.818724496127572 4.6518394433348371 6.3604381731226871 0.14291793313069912 44.925851112677918 1023.5000000000001 9.0500000000000025 1.5000000000000002 3.613278495887192 2162.7083333333335 4.8500000000000005 1514.5000000000002 8.1500000000000004 1.0000000180025095e-35 0.67507961783439507 568.50000000000011 5.2496487501035594 6.9500000000000011 1786.8750000000002 9.7500000000000018 6.3604381731226871 9.9500000000000011 3.8916521648235292 0.16677774815604732 4.9023856578204414 0.18706876117827057 18.330589519902688 12.670667346167567 6.0500000000000007 0.80870262695128881 2.5000000000000004 0.70199691974000999 0.19674775251189849 25.805354239918589 11.000000000000002 4.1510089048756029 37.126834460123085 25.386189797961389 4.6500000000000012 0.12718030625697194 5.344720891341141 4.700255102040817 4.8676198257080623
decision_type=2 2 2 2 2 2 2 2 2 2 2 2 2 2 2 2 2 2 2 2 2 2 2 2 2 2 2 2 2 2 2 2 2 2 2 2 2 2 2 2 2 2 2 2 2 2 2 2 2 2 2 2 2 2 2 2 2 2 2 2 2 2 2 2 2 2 2 2 2 2 2 2 2 2 2 2 2 2 2 2 2 2 2 2 2 2 2 2 2 2 2 2 2 2 2 2 2 2 2 2 2 2 2 2 2 2 2 2 2 2 2 2 2 2 2 2 2 2 2 2 2 2 2 2 2 2
left_child=1 2 7 4 17 46 22 15 9 41 20 18 27 78 36 19 30 108 32 31 42 96 122 24 55 67 45 39 29 44 64 88 102 -32 72 63 104 -20 94 -9 90 69 91 -44 -11 -22 47 48 99 75 103 -19 70 100 98 -24 -31 -41 59 -29 -56 -28 -51 118 -14 -65 101 68 -23 95 -49 -55 -27 -40 -68 -18 -43 111 79 -5 -72 92 -78 84 -16 -50 -60 -36 -1 -69 -13 -8 -21 -33 -39 -7 97 -10 -52 -3 -34 -30 114 110 107 116 -107 -15 -2 -110 -12 -25 -71 -108 -6 -111 -53 -118 -17 -42 121 -106 -4 -101 -86 -126
right_child=3 5 6 13 11 8 10 12 21 28 50 40 16 14 83 35 49 51 37 81 26 25 23 77 -26 34 61 58 66 56 33 93 53 -35 87 -37 -38 38 73 57 119 76 43 -45 -46 -47 -48 52 85 62 54 105 -54 71 60 -57 -58 -59 86 -61 -62 -63 -64 65 -66 -67 74 89 -70 112 80 -73 -74 -75 -76 -77 82 -79 -80 -81 -82 -83 -84 -85 124 -87 -88 -89 -90 -91 -92 -93 -94 -95 -96 -97 -98 -99 -100 123 -102 -103 -104 -105 120 106 113 -109 109 115 -112 -113 -114 -115 -116 -117 117 -119 -120 -121 -122 -123 -124 -125 125 -127
leaf_value=-0.0017300714380829485 -0.071781842943269919 0.07804224618559974 -0.070379128222809381 -0.079375091639184561 -0.039106302765376438 0.011127806117726159 -0.0034946309352212775 0.017489311076348886 0.010513768644935424 0.031227420268373714 -0.021772908020287089 -0.01210706192952829 0.012077840195307813 -0.038283238471468341 -0.061698931149991712 -0.012251561326321724 -0.026642208554888358 0.015203742027809273 0.032922749719398688 0.0086218566117389917 -0.0062492850983473921 0.0042508107533895346 0.018188248475954596 -0.060129329944955338 0.024642732220270705 0.026699124806467273 0.020491351232575571 -0.016300135403923773 0.0024205826460109376 0.005130017680937687 -0.0027071801997012816 -0.0073768520222286223 0.020806524391447642 0.032031057524106371 0.04595799261242911 0.038094148009743235 0.032791386829890787 -0.015187429975050792 -0.010337332796792106 0.064080116525587524 0.067048390934988253 0.0041191738201332073 -0.049185147510384233 0.0010109645440007124 0.00083507330795981334 0.041337613183767413 0.071947766101699021 0.058468668289505026 0.0046420033849462351 0.036930828893941545 -0.0069850055184320654 -0.011477453252948374 0.0060160269136450414 0.05216377427488688 -0.021275435260720812 -0.038406708478284285 -0.040665334385731583 0.036624785465745512 0.016700393457798429 0.043797625258579782 0.010798597991042533 -0.039276697053582846 -0.007592789880111403 0.012286902640590864 0.05487828158442172 -0.029090278821605021 0.03382615085843757 0.03148774738559422 0.046915276751057416 0.0068832990123960372 0.046965172945184847 0.011204662367057278 -0.010539484050854572 0.040560114417583816 -0.017060838389531482 0.0081729111988359544 0.043893263704401941 -0.006313217085418466 -0.081950784292198098 -0.05650241359333761 0.014697492998518809 0.0016540855358959075 0.068936164178388687 -0.07851697348260904 -0.001313379324474506 0.0459304287670863 0.051543800237180915 0.018313187178394245 -0.048057023123480813 0.074297227622718356 0.030457824927354899 0.04225021428388781 0.052060522147299795 0.034450855727435004 -0.03545243722245197 0.048403212227119199 0.072145880051009983 0.058549142064685034 -0.038957653983096717 0.036909726109966741 -0.013408255221497717 -0.028276140293593145 0.0051907339382051033 0 0.0064753679124428011 0.0026657096157433006 -0.014624264198936277 0 -0.00016532607838658025 -0.017141449122937743 -0.048187990904655038 -0.018855556502129639 -0.018990210751672645 -0.04025950829715999 -0.0046987496458147484 -0.061249501600059486 -0.0089812661043158579 -0.04858523073031297 -0.052036552256351613 0.038766829911756777 -0.023286717800401448 -0.013068545761879491 -0.014132176590496873 0.063661809788353035 -0.033818366739773793 -0.0028082087059188871
leaf_weight=3.4283279720693809 61.243185350671411 61.810750365257263 23.822788618505005 91.955158706754446 2.1827750578522709 4.8547141999006254 2.9977156706154373 6.7671450376510611 4.7566766180098083 36.920360919088125 6.3526508100330892 2.9965254515409496 4.8334268219769028 20.647646542638544 15.366065560840072 1.5538470912724793 10.506289333105093 1.8775517288595427 2.8394024651497594 3.100498039275414 3.6855487301945713 4.0800214782357243 2.0116917584091487 21.32173157110811 5.6209157817065707 5.9032005816698057 2.0765384435653678 5.6385775767266768 2.4427941571921137 15.568684153258802 11.531549714505671 2.605155948549509 2.202455963939431 28.487783972173929 25.289908705279231 1.4514287523925293 1.8527490608394135 18.33609109185636 3.6387860635295501 82.881386443972588 10.948325488716366 2.5128182396292678 5.687686746940015 6.8022373989224434 12.473507022485135 27.626369027420878 205.12901385873556 19.50315997749567 6.1718755178153497 6.6887886170297843 4.4245629999786642 1.6715313270688046 6.5269755125045767 10.169260960072281 10.078877162188293 15.445960083976386 3.413958376273512 16.045381493866444 6.5969386957585838 4.0076782591640949 12.839282136410473 3.1324662799015641 4.3796320408582687 4.5300700925290576 24.442985247820616 8.1722475439310056 3.6743558701127759 5.2669506818056133 22.518495131283998 2.1785942055284968 10.29304386302829 6.0173508180305353 7.8950925096869469 2.8217118522152305 2.7348706815391779 6.0255337301641694 32.026676818728447 2.6651507010683408 265.39356946200132 59.31736053712666 11.649759594351051 3.2903345525264731 19.460508018732071 31.928537506610155 1.5570417474955309 4.2295496556907892 15.668110888451336 10.254873448982833 4.2688072882592678 19.740627687424421 3.4333013109862804 2.6124472767114639 14.476503744721411 4.6174303814768791 16.418643353506923 5.139482531696558 42.087746532633901 25.236591812223196 11.959778175689278 6.6693034023046485 4.5568247623741627 10.398287855088709 2.5590206794440746 1.1414257530122984 1.8476899079978482 1.160180378705262 5.5272661810740811 1.0669690053910006 2.4997008331120005 1.7148498147726048 15.497623935341833 2.3681317530572406 2.1959734559059143 5.4478598404675722 1.989480637013912 11.700758965685962 1.2944493759423483 36.862041880842298 8.9093077480792982 8.7196015277877432 3.6897602789103985 3.7445641811937094 0.95849661715328593 42.514946307986975 2.7138038258999586 1.911099074874073
leaf_count=40 1465 159 544 2264 25 37 40 39 27 273 96 34 40 383 372 24 122 16 25 26 40 31 20 433 39 45 17 50 26 144 84 27 21 180 181 6 11 275 51 270 38 20 84 71 123 188 565 64 36 59 60 26 39 55 169 247 55 76 50 27 165 44 48 43 103 112 31 31 130 21 45 62 87 26 41 66 182 39 6462 1349 65 34 64 804 28 26 88 103 65 79 32 16 65 36 270 29 151 96 199 21 58 144 28 16 23 20 89 18 37 36 290 36 21 91 28 271 17 698 162 85 69 58 16 167 59 38
internal_value=0 0.0366813 0.0110234 -0.0594311 -0.0275597 0.0543593 -0.0227018 0.0329007 0.0400813 0.0261755 -0.00614397 0.011159 0.0409071 -0.0739637 -0.0531863 0.00157654 0.0242737 -0.0569647 -0.00186528 0.0205026 0.0155949 0.052367 -0.0482913 -0.0366331 -0.016766 0.0430918 0.027979 0.052324 0.0100008 0.0159407 0.03389 -0.00621455 0.0173857 0.0220774 0.0299923 -0.0254686 -0.0262102 -0.0150426 -0.0191671 0.057597 0.046851 0.0463911 -0.00928744 -0.0234284 0.0238205 0.0355616 0.0667502 0.0600405 0.0673932 -3.59079e-05 -0.0252294 -0.0402317 0.040336 0.0274946 -0.0157319 -0.0309822 -0.00447876 0.0600881 0.0334877 0.00996733 -0.00339755 -0.0151823 0.0197297 -0.0310696 0.0486095 -0.0141491 -0.0105959 0.0547137 0.0409432 0.021375 0.0453539 0.0387661 0.00578173 0.0136796 0.0120654 -0.0139252 0.052447 -0.0525987 -0.0781188 -0.070869 0.031439 0.0392442 0.054587 -0.06888 -0.0515299 0.0244257 0.0425965 0.0388385 -0.0305692 0.0670306 0.0109885 0.0202198 0.0455439 0.0196934 -0.0256245 0.0334104 0.064521 0.0516775 -0.0315096 0.0711211 -0.000370569 -0.0223224 -0.0155265 -0.0399237 -0.0308077 -0.0425784 -0.0265914 -0.036451 -0.0679128 -0.0493654 -0.0420159 -0.0571368 -0.0062913 -0.030066 -0.0277468 -0.0575384 -0.0465564 -0.047633 -0.0481486 0.0572343 -0.0148584 -0.00585 -0.0690301 0.0609417 -0.0204858 -0.0246706
internal_weight=1923.38 1189.56 486.035 733.821 230.829 703.524 191.13 294.905 329.026 155.996 116.915 99.8296 234.501 502.992 86.3259 60.404 96.896 130.999 73.7318 35.7871 54.621 173.03 74.2149 49.4336 23.0786 100.949 36.5209 137.605 87.6268 68.3765 69.2957 14.9197 29.6772 40.0193 49.3431 24.6169 32.8494 44.0546 41.2152 105.694 26.0978 68.3688 18.1001 12.4899 49.3939 31.3119 374.498 169.369 121.396 27.6002 62.2942 53.8409 47.9729 22.9459 39.3025 17.4577 18.9826 98.9268 31.9113 9.64626 22.9182 5.209 11.0684 23.1655 29.2764 12.7023 19.2503 51.6061 26.5985 14.3688 41.446 16.1866 13.7983 6.4605 6.40923 16.5318 54 26.355 416.666 151.273 21.9428 20.8673 51.4872 53.4765 21.548 10.4014 22.265 35.5448 7.69714 25.0076 6.42983 5.61016 17.577 7.22259 34.7547 9.9942 72.081 29.9933 16.3843 110.995 6.75928 12.8411 6.73128 22.9917 30.9966 51.9633 12.1353 21.7146 77.1585 15.9153 21.8503 23.6899 4.37457 10.9751 4.17226 13.4156 39.828 38.1565 10.4632 19.6679 9.28201 5.59225 24.7813 49.1842 6.18194 4.6249
internal_count=23987 8170 4811 15817 3879 3359 2869 1942 2172 1211 1495 1113 1302 11938 1863 640 702 2766 924 293 500 961 1374 814 306 687 289 600 837 595 407 168 277 264 416 347 562 647 622 385 189 374 211 155 396 228 1187 622 409 295 995 957 213 196 593 267 199 346 215 77 334 61 107 341 143 155 242 271 161 108 174 117 132 77 72 188 266 508 10075 3613 110 125 246 1301 497 62 138 284 105 110 66 56 91 63 545 66 274 123 259 347 79 170 81 402 551 941 200 401 1809 344 386 469 42 180 53 307 741 715 186 123 150 81 560 188 125 97
is_linear=0
shrinkage=0.05


Tree=4
num_leaves=125
num_cat=0
split_feature=34 18 34 34 34 88 0 18 18 88 0 88 34 12 88 18 18 34 3 3 12 3 3 12 34 65 18 34 48 18 88 53 0 44 10 3 12 48 18 0 69 61 12 11 34 0 34 0 11 40 14 17 88 12 3 34 18 0 20 48 11 12 50 12 40 38 0 12 18 0 40 44 40 56 18 26 48 48 12 10 11 7 0 41 11 65 10 11 18 40 53 50 20 11 41 8 12 0 34 10 34 34 3 16 18 7 12 3 34 15 40 50 18 48 34 15 34 34 34 3 17 14 65 34
split_gain=1430.57 192.257 101.137 93.521 69.5667 46.7393 54.2306 46.5957 34.1781 24.7448 41.8948 24.2878 21.5278 20.5037 16.229 11.4455 11.127 15.5722 10.0301 9.66348 9.42653 9.17725 8.10632 7.63099 7.44527 7.39635 7.14455 7.05082 7.01208 6.96181 6.85982 6.3434 6.12409 5.86519 5.68079 5.53474 5.48722 5.37542 5.14794 4.9976 4.85844 4.59457 4.29031 4.13712 3.52325 3.47015 3.35475 3.3193 3.38294 3.3157 3.56244 3.16878 3.06676 2.79192 2.69754 2.68087 2.61692 2.61156 2.58086 2.9166 2.45177 2.43892 2.4318 2.34628 2.22681 2.14191 2.14093 2.26419 2.1159 2.10276 2.06266 1.88515 1.75345 1.71231 1.70984 1.53877 1.49624 2.00387 1.45599 1.32986 1.30834 1.29406 1.95409 1.2485 1.34985 1.23814 1.21294 1.1977 1.17975 1.16457 1.1192 1.10651 1.08095 1.05863 0.977295 0.935036 0.870562 0.766469 0.73158 0.712137 0.70158 0.692569 0.653503 0.640134 0.623655 0.605956 0.590128 0.573992 0.560239 0.500195 0.433128 0.432979 0.389613 0.370918 0.324899 0.242582 0.228612 0.227568 0.197677 0.192788 0.116258 0.0958937 0.017179 0.00972229
threshold=19.252872346592884 7.0500000000000016 10.562245489559785 8.7200407902142612 23.070706612145862 1.0000000180025095e-35 302.50000000000006 8.4100000000000037 8.7900000000000027 1.0000000180025095e-35 311.50000000000006 1.0000000180025095e-35 12.832048853593969 0.6866570760654559 1.0000000180025095e-35 5.7500000000000009 8.4700000000000024 29.806010336612996 17.500000000000004 29.500000000000004 0.51377705744642543 100.50000000000001 37.500000000000007 0.076157521832262334 3.794656211671072 1.0000000180025095e-35 7.2500000000000009 14.073469666798177 8.5000000000000018 8.3500000000000032 1.0000000180025095e-35 1.0000000180025095e-35 204.50000000000003 822.33333333333337 0.18247737051024793 126.50000000000001 0.013898756184200644 4.5000000000000009 8.9700000000000024 70.500000000000014 1.0000000180025095e-35 1.0000000180025095e-35 -0.19910408118768705 0.13825796055791553 8.3393910599288059 214.50000000000003 13.810994679670342 87.500000000000014 0.19674775251189849 1322.5000000000002 8.4500000000000011 9.8500000000000032 1.0000000180025095e-35 0.41423698126538683 67.500000000000014 7.2754690779115068 5.3500000000000023 187.50000000000003 7.1500000000000012 2.5000000000000004 0.24070552136395615 0.81261623985775311 0.26136363636363641 0.076157521832262334 475.50000000000006 52499.500000000007 232.50000000000003 0.66202471399108054 9.4500000000000028 243.50000000000003 357.50000000000006 2647.1250000000005 1023.5000000000001 1.0000000180025095e-35 9.490000000000002 4.5000000000000009 7.5000000000000009 11.500000000000002 0.8625168463611862 0.37495098039215691 0.54320903139080434 0.12730095990965559 66.500000000000014 1891.9000000000003 0.34484889817143355 1.0000000180025095e-35 0.26372653894777792 0.22228398492989934 9.8500000000000032 2068.5000000000005 1.0000000180025095e-35 0.59166666666666679 7.6500000000000012 0.60664947504144429 2527.1000000000004 0.16502427184466023 0.62973194188663817 261.50000000000006 3.794656211671072 0.34618481357611797 20.538342146553521 25.830574047473451 203.50000000000003 8.1500000000000004 6.8500000000000005 0.10352396233840939 0.65490467557822185 224.50000000000003 5.3985389920358591 7.3500000000000005 1673.5000000000002 0.48076923076923084 8.610000000000003 12.500000000000002 29.498306556619706 7.3500000000000005 7.2754690779115068 25.124724351513908 25.689609262735441 360.50000000000006 8.0500000000000025 8.4500000000000011 1.0000000180025095e-35 26.546977064676124
decision_type=2 2 2 2 2 2 2 2 2 2 2 2 2 2 2 2 2 2 2 2 2 2 2 2 2 2 2 2 2 2 2 2 2 2 2 2 2 2 2 2 2 2 2 2 2 2 2 2 2 2 2 2 2 2 2 2 2 2 2 2 2 2 2 2 2 2 2 2 2 2 2 2 2 2 2 2 2 2 2 2 2 2 2 2 2 2 2 2 2 2 2 2 2 2 2 2 2 2 2 2 2 2 2 2 2 2 2 2 2 2 2 2 2 2 2 2 2 2 2 2 2 2 2 2
left_child=1 3 9 11 7 6 8 26 20 10 29 24 15 19 33 81 123 30 80 92 65 51 44 75 63 72 120 41 -22 32 114 36 39 -9 43 62 89 86 71 -3 -29 -21 98 -25 49 -34 -20 -38 -49 -11 -51 100 83 -35 -54 122 -26 -39 59 116 -48 108 -10 -1 87 -4 -31 -68 101 -37 115 110 73 -17 -70 109 102 -78 -63 103 121 82 105 84 -28 -61 -27 -36 97 94 99 -74 96 -8 -13 -65 -7 -55 -33 -40 -16 117 -58 -46 -66 -5 -72 -73 119 -14 -23 -57 -103 -111 -18 -56 -24 -32 -76 -12 -2 -15 -44 -6
right_child=4 2 5 12 16 13 93 14 35 22 61 31 23 18 21 25 17 -19 46 27 28 38 58 34 56 37 52 40 -30 66 68 42 45 53 64 69 47 57 90 -41 -42 -43 55 -45 79 -47 60 48 -50 50 -52 -53 54 88 70 111 76 -59 -60 85 -62 78 -64 95 104 -67 67 -69 74 -71 106 107 91 -75 118 -77 77 -79 -80 -81 -82 -83 -84 -85 -86 -87 -88 -89 -90 -91 -92 -93 -94 -95 -96 -97 -98 -99 -100 -101 -102 112 -104 -105 -106 -107 -108 -109 -110 113 -112 -113 -114 -115 -116 -117 -118 -119 -120 -121 -122 -123 -124 -125
leaf_value=-0.0096659595390411503 -0.069635649667526348 -0.006441856146127892 -0.035679405076463382 -0.012893474122649982 -0.067023727860684307 -0.033708904872200234 -0.073348932646314716 0.038037997665876476 -0.013688069493296061 0.065538480004769528 -0.026808771329356759 -0.016752589629792605 -0.067613829974465772 -0.0070963938908440846 -0.0053706503446526895 -0.033606084940275463 -0.056894773858578766 -0.072521313648090682 0.065305914576640381 0.021433693311543045 -0.010315873157919283 0.035125143383751299 0.042544165578175377 0.054783884116248786 -0.056863922308043158 0 -0.034702258106742816 0.00044285763164127748 0.026555620588348802 0.06538835941524937 -0.018781295871776973 0.026025169775059677 -0.026330200644309049 0.016137608602738381 -0.023234808020169553 0.059713032353564927 0.05449043241783607 0.028419928808943826 0.039113415845248023 0.05066400414777205 0.028077685898709844 0.051943410592327849 0.039828562503707365 -0.024284390584945591 0.0070995730153105233 0.023116753779503611 0 0.029408570695249055 -0.025257093496287703 0.00012460612319830429 0.049558726335231937 0.01978929469399467 -0.050375988742341518 -0.03248968517283024 0.025592954161450028 0.010372396216238545 -0.040061421055551091 -0.0063084658588023748 0.074227697406433354 0.049053640027446999 0.04731839479735845 0.019523745510192113 0.028172509275693581 0.016048537242855838 -0.048970945897354373 -0.0014954473154396661 0.01659823740290815 0.052052609103885331 0.034775102145066107 0.019151611928884368 -0.026796103715653431 0.0009162430597081094 -0.046030746347843321 0.018028314032266405 0 0 0.013211096569500242 -0.026398151032428971 -0.02565731014744238 -0.0029629364120488601 0.017254783993062815 -0.059187969725194189 -0.043833507472685253 -0.060814198065484271 0.016500966935645314 0.068146310213314076 -0.039245446991646678 0.012954594153029112 0 -0.032304697473990819 0.059547028914398517 0 0.0084199560022503225 -0.016209073658452346 0.020500155987604365 0.057837319969016976 0.0028263484298531182 -0.063499562320350339 -0.0054454642867416388 0.0037709645438275107 -0.041135791935385017 -0.0080727768613391791 -0.0092952298581385484 0.042514541399134846 -0.024941248758340483 0.02010962185148385 -0.0019798846379541673 -0.029809774495563136 -0.05663831466739655 -0.035941683135310501 0.0020558495645707575 0.039024502670248838 -0.040242901217032639 0 -0.012594014367892249 0 0.01975084729907849 -0.00051702871821219252 -0.017030707427544627 -0.00014158434045235681 -0.028203312560065766 -0.031705784117206259 0.067141193130697344 -0.077754936658493728
leaf_weight=2.5802986547350866 44.380005394108593 3.7378242909908286 23.072102111764256 1.8131163883954315 70.079307170584798 7.4424765235744399 19.608775235712532 1.8811968173831726 3.646768897771838 19.410916455090046 2.2617098726332174 2.2280182186514166 34.752831511199474 2.0833341460674992 2.6201542196795327 1.603429540991782 23.53920864220709 71.206776136066765 53.846757158637047 23.979395601898432 27.647901140153408 2.5502934977412242 6.1901728995144349 2.3015696927905074 3.539146481081846 3.5880540665239087 3.0403658887371448 30.432884950190783 22.392215259373188 62.11672704666853 7.9558201036416047 2.2353610992431632 3.2499523200094727 1.451978445053103 7.418308665044604 32.380598034709692 11.008255191147329 26.159315258264542 2.9636075682938108 51.696351081132889 33.274925919249654 33.194568229839206 6.6093768626451483 2.3733347086235881 3.0308929309248906 21.855999283492565 2.7807079311460248 9.3006475120782834 2.9452924579381934 6.377648912370204 8.2095529362559301 3.4999576862901449 7.0490839248523143 10.494900401681667 1.7145774029195338 4.7197356652468434 4.3640664778649825 6.0829208176583043 160.20275980234146 27.254822470247746 60.790910203009844 2.411296382546424 14.280717074871061 4.089988324791193 24.881905879359692 6.1539174430072299 7.5478628315031555 24.089652944356203 1.8539582043886165 5.2969433702528468 12.349923360161485 2.1252321191132069 7.9970205184072238 3.1551662720739841 3.2500474639236927 0.83993681892752547 7.9177978057414276 3.9628747552633286 2.6854484509676695 4.6595791652798653 2.1119135767221451 8.4816415682435018 4.0788333024829626 15.071240509860216 1.0275211259722707 87.470179576426744 3.8684466350823641 2.2101378180086613 1.2578795282170165 2.7951587401330471 12.833024214953184 1.5539592150598762 1.9370433539152134 1.7705796435475338 2.7970128059387207 3.4579909630119801 1.5362897478044031 7.0539678055793038 3.2305609304457903 3.1413437649607658 5.3621224528178573 2.1340570803731671 4.4874495174735785 3.3878115378320217 8.0746503220871073 1.6763702742755411 3.672116106376051 2.3577965367585421 6.8502426631748676 1.9192609153687947 2.0320941098034382 2.7309393137693405 9.3455628613010031 1.0827954672276972 1.3912726491689671 1.9684206433594225 6.6214903704822063 2.8921184316277504 3.6023441404104233 1.3602584376931188 2.4570434289053074 1.9432193152606485 32.933040931820869 274.59419840946794
leaf_count=35 1126 33 380 31 1748 123 430 11 40 72 35 31 848 23 38 26 542 1840 206 180 342 24 29 5 70 47 64 382 219 186 135 13 22 13 130 143 34 206 22 262 282 207 33 39 19 168 32 67 16 37 31 34 158 173 19 40 57 83 413 113 400 19 113 27 500 78 35 72 10 46 217 30 98 32 48 15 82 53 33 31 18 183 84 331 11 294 57 26 13 36 80 18 18 29 21 16 17 156 38 36 91 38 56 22 133 17 55 29 121 42 23 19 206 15 24 27 34 43 67 17 52 21 104 7143
internal_value=0 0.0317845 0.0425738 -0.00502804 -0.0612749 0.0239278 0.00232301 -0.0317798 0.0142181 0.057174 0.0422572 0.0284105 -0.0303728 0.0370676 0.00188253 -0.00950872 -0.0708255 -0.0568509 0.0517215 0.0230063 -0.00683862 0.021019 0.0655166 -0.047035 -0.00670323 0.00164701 -0.0539854 0.0270989 0.00628264 0.0492925 -0.0359018 0.042838 0.037414 -0.0314639 -0.0321976 0.0439138 0.0235009 0.0128467 0.0361361 0.0466789 0.0151648 0.0398216 0.053545 0.016556 0.0435891 0.0157609 0.0549642 0.0353595 0.0149692 0.0515752 0.0296611 -0.0153901 -0.0382251 -0.0396386 -0.0253435 0.0583688 -0.0216534 0.0217249 0.0687716 0.0613549 0.0452513 -0.0344233 0.0191199 0.0274003 -0.0379214 -0.0289346 0.0589415 0.0445151 -0.0190065 0.0547825 -0.0141466 0.00384549 -0.0279071 -0.00131637 0.00133905 -0.0638053 -0.0130726 -0.000636367 -0.00376552 0.0164257 -0.00861561 -0.045236 -0.0239339 -0.0538312 -0.0200781 0.0641168 -0.0229809 -0.0140201 -0.0447946 -0.0112061 0.0503744 -0.0393012 -0.0203669 -0.0697759 0.00311396 0.0403049 -0.0272998 -0.0479754 0.00868607 0.0247218 -0.0318576 -0.0268717 -0.0274982 0.0296768 -0.0441386 0.00279541 -0.0218526 -0.0168213 -0.0472796 -0.065258 0.0243512 0.0248413 -0.0357892 -0.0266569 -0.0551964 0.0158171 0.0334088 -0.0147886 -0.0103471 -0.020073 -0.0682017 -0.0239125 0.0637943 -0.0757877
internal_weight=1834.33 1208.13 934.284 273.846 626.201 411.605 156.251 154.356 134.871 522.679 189.863 117.933 155.913 255.354 61.6255 70.0583 471.845 127.171 123.557 131.798 79.2661 39.4856 332.816 85.8547 34.3996 54.0083 92.7303 120.882 50.0401 174.294 55.9644 83.5334 80.5401 22.1399 47.2599 55.605 31.0744 39.6987 28.0034 55.4342 63.7078 57.174 52.459 4.6749 45.0764 25.106 117.418 23.2542 12.2459 33.9981 14.5872 11.4822 45.8932 20.2587 26.7541 46.9931 24.2713 32.2422 287.739 127.537 63.5716 15.569 17.9275 10.1283 42.585 29.226 93.7542 31.6375 31.0339 37.6775 19.705 9.06542 14.3096 4.7586 8.70635 38.5948 20.7322 11.8807 5.09674 11.0783 6.13847 16.05 7.56832 19.1391 4.06789 114.725 7.4565 9.62845 18.8067 7.82019 18.938 9.55098 10.9158 21.3794 5.02503 7.54798 8.97877 17.5489 5.46592 6.10495 7.98228 22.3276 8.85152 6.4187 32.9566 3.48949 16.022 4.48303 10.4722 37.7549 4.58239 7.45067 11.4796 3.00206 24.9305 3.683 12.8117 10.8479 6.85239 3.62197 46.837 4.02655 39.5424 344.674
internal_count=23987 9310 5827 3483 14677 3729 1820 2833 1361 2098 1003 848 2635 1909 773 882 11844 2953 700 1209 1019 407 1095 1753 396 567 2060 1051 561 778 1113 452 485 366 833 342 205 393 244 295 664 387 247 44 212 190 638 117 83 140 68 163 882 355 476 196 318 289 883 470 432 225 153 78 789 458 293 107 547 189 318 106 174 58 125 920 248 135 52 72 62 315 132 406 75 407 104 156 342 88 138 116 158 459 52 43 140 329 51 58 129 422 113 41 633 48 272 59 173 905 47 59 244 57 566 46 63 178 115 52 1178 44 137 8891
is_linear=0
shrinkage=0.05


Tree=5
num_leaves=127
num_cat=0
split_feature=35 6 35 35 35 6 5 88 88 0 6 18 0 88 0 6 0 88 0 88 35 6 6 0 88 49 35 35 6 41 32 88 0 0 18 35 35 13 6 48 0 3 35 8 69 3 6 0 0 0 5 0 48 35 0 0 5 0 59 32 6 13 35 48 13 9 88 15 6 62 12 35 35 6 32 16 8 13 44 32 35 17 9 20 9 35 0 12 13 10 50 35 41 59 16 3 3 0 37 6 3 6 49 11 38 6 44 35 69 26 13 48 49 6 6 18 13 9 17 41 3 13 0 11 10 6
split_gain=1240.3 182.043 137.701 62.5924 56.0695 55.1943 27.1694 25.5507 22.7074 34.0287 18.8298 18.4338 18.1106 13.8287 13.2621 12.1488 11.7617 18.5357 15.8833 10.9032 10.5771 10.4276 8.46199 7.13501 6.67651 6.37881 6.15001 5.82002 5.77411 5.76917 5.71801 5.69453 5.566 4.96649 4.80883 4.78097 4.75688 4.71016 4.67634 4.6467 4.51006 4.47768 4.19916 3.80976 4.3799 3.7819 3.59383 3.01634 2.91209 2.82216 5.34921 2.87674 2.79292 2.77982 2.67601 2.5706 2.54647 2.51219 2.41667 2.3982 2.38833 2.34284 2.28885 2.03575 2.16593 2.01256 2.00566 1.92364 1.862 1.64049 1.62946 1.73165 1.58766 3.71864 1.58745 1.54696 1.52485 1.52215 1.48681 1.4805 1.44737 1.41375 1.36987 1.36111 1.34414 1.31069 1.2292 1.2244 1.19135 1.16433 1.08817 1.0707 0.961716 0.932768 0.926205 0.915579 0.879701 1.17649 0.874335 0.831107 0.828805 0.800001 0.722024 0.650899 0.610575 0.571032 0.630088 0.564077 0.513893 0.497698 0.477271 0.354683 0.325786 0.285627 0.349493 0.277451 0.258914 0.253427 0.247999 0.156401 0.0938074 0.077917 0.0770088 0.0745187 0.0653053 0.0651801
threshold=3.0082966260963446 3.7748953486562615 2.4477450892673933 3.1809956075388937 2.6028768989208344 4.0776257767861841 3.3500000000000001 1.0000000180025095e-35 1.0000000180025095e-35 311.50000000000006 3.991484375856075 6.3500000000000023 137.50000000000003 1.0000000180025095e-35 287.50000000000006 4.2301089168821173 208.50000000000003 1.0000000180025095e-35 293.50000000000006 1.0000000180025095e-35 3.4617436615642885 3.1648500148500154 4.3972180030950891 113.50000000000001 1.0000000180025095e-35 1.5000000000000002 2.082561689515166 2.7129361352972818 3.643126684636119 3656.8750000000005 38.84338058057012 1.0000000180025095e-35 195.50000000000003 189.50000000000003 5.7500000000000009 2.2928734784018343 1.8116066623300504 9.2500000000000018 4.0307071960297778 9.5000000000000018 109.50000000000001 914.50000000000011 2.8999190561267234 0.068148880105401863 1.0000000180025095e-35 822.50000000000011 4.4254657234917234 100.50000000000001 170.50000000000003 206.50000000000003 4.5500000000000007 99.500000000000014 11.500000000000002 2.5020816050000785 255.50000000000003 191.50000000000003 3.2500000000000004 204.50000000000003 1.0000000180025095e-35 37.243803552687815 3.6344644750795339 6.1500000000000012 2.7050216971655505 7.5000000000000009 6.4500000000000011 0.25008710801393735 1.0000000180025095e-35 6.4500000000000011 4.2398153128922367 1.0000000180025095e-35 0.81261623985775311 1.856069479355632 3.3644731941905444 3.6964495985102532 47.625819444247689 8.7500000000000018 0.016161682120935095 5.6500000000000012 3531.7500000000005 34.596949989319654 3.0880870492295442 9.1500000000000004 0.19232051282051285 3.8500000000000001 0.30955642530985 3.3266313371173113 528.50000000000011 0.84414688759516354 5.4500000000000011 0.40918680475642505 0.42261904761904767 1.3490556480471352 463.25000000000006 1.0000000180025095e-35 7.7500000000000009 13.500000000000002 299.50000000000006 304.50000000000006 2342.5000000000005 4.4398427923808788 317.50000000000006 4.7846156034340535 5.5000000000000009 0.11771776018099549 2614.4250000000006 3.9381440669319461 2805.5500000000006 2.463455585007138 1.0000000180025095e-35 3.5000000000000004 8.2500000000000018 13.500000000000002 2.5000000000000004 3.6686681937172776 3.991484375856075 9.7500000000000018 9.6500000000000004 0.56280339805825252 9.3500000000000032 2719.1000000000004 426.50000000000006 7.4500000000000011 308.50000000000006 0.3262453493179 0.38764738521292835 4.8676198257080623
decision_type=2 2 2 2 2 2 2 2 2 2 2 2 2 2 2 2 2 2 2 2 2 2 2 2 2 2 2 2 2 2 2 2 2 2 2 2 2 2 2 2 2 2 2 2 2 2 2 2 2 2 2 2 2 2 2 2 2 2 2 2 2 2 2 2 2 2 2 2 2 2 2 2 2 2 2 2 2 2 2 2 2 2 2 2 2 2 2 2 2 2 2 2 2 2 2 2 2 2 2 2 2 2 2 2 2 2 2 2 2 2 2 2 2 2 2 2 2 2 2 2 2 2 2 2 2 2
left_child=1 2 7 5 8 28 27 11 9 25 24 56 19 41 23 72 37 18 46 53 31 36 48 74 32 29 63 34 -2 54 61 125 39 -25 107 -10 83 58 76 90 67 96 52 44 -19 79 -18 -32 75 51 -51 -27 92 -8 -3 -43 91 -31 81 77 -42 -21 104 64 -23 82 -30 -28 -33 -67 71 -11 73 -5 -13 -15 -37 -38 -58 -36 105 -12 -64 -9 -54 99 108 -72 -47 -24 -6 -1 -14 -61 -78 -65 -7 119 -41 -70 -40 -87 -34 -93 -26 106 -68 -4 -50 -55 -107 117 -60 -82 -115 -20 -89 -29 -91 -98 -102 -73 -16 -39 -57 -17
right_child=3 4 6 15 10 13 12 21 35 70 16 14 42 22 122 20 17 43 115 30 -22 26 89 33 62 49 40 111 66 57 47 68 102 -35 45 38 59 123 100 98 60 55 -44 -45 -46 88 -48 -49 86 50 -52 -53 84 109 -56 124 78 -59 112 93 -62 -63 65 95 -66 69 80 -69 85 -71 87 121 -74 -75 -76 -77 94 -79 -80 -81 113 -83 -84 -85 -86 101 -88 116 -90 118 -92 103 -94 -95 -96 -97 97 -99 -100 -101 120 -103 -104 -105 -106 110 -108 -109 -110 -111 -112 -113 -114 114 -116 -117 -118 -119 -120 -121 -122 -123 -124 -125 -126 -127
leaf_value=0 -0.064581214193573933 0.046167851026588907 -0.0098464531574175111 -0.071985699745105561 -0.040514819557557313 -0.049480596149084087 0.016022610441557571 0.0040589883474192526 0.070547497638058149 -0.0026599444013730615 0.0046734427151542586 0.0059268923034488125 0.0070764321562297866 0.04721555470916939 -0.016591995036797837 -0.05146820436014659 -0.0017658756499129256 0.026863956981071909 -0.062936995922438121 -0.0035275561074957816 -0.067456515916199056 0.015514296005870801 0.057565745209988362 0.047715032747082858 0.044225165199518746 0.02198482038223536 0.022150497037508887 -0.06282501977017374 -0.050512488401943889 0.012493256370310592 0.017103522634821809 0.029393543586218509 -0.045501098305033148 0.013170611924834855 -0.0050592804508796645 0.0051144319458210855 -0.0089700607389331579 0.036764062283282113 0.068748519852248363 0.0068279528628384274 0.0066737236134960885 0.04113161421178102 -0.053402177138432039 -0.0055097441928657724 0.057812986069437272 0.039763496404022033 0.039849741861038956 -0.018204095173165492 -0.031422915780835566 0.025862955489001433 0.060176927105155265 0.06560113729179945 -0.013568463372975615 -0.03909285138823633 0.0013587309678220795 -0.0030755273010550687 -0.020195012436636284 -0.037783439320831641 0.024246488901866838 -0.031358129971775943 0.036350043275411324 0.042355950503245893 0.0074014851849389472 0.028382078755040032 0.049176390438533786 -0.0032269650176764615 -0.0029581883024495919 0.05501713045386826 -0.017707051820921482 0.03027114645562707 0.020192466903639114 -0.01202327455839737 -0.074605115737046021 -0.048500096007500083 -0.029491534925663882 -0.0016605015850227308 0.025254366667787 0.034367159661886741 0.02855105480618117 -0.036334183931339373 -0.0031530893588282306 0.033457935949686067 -0.022068181236005915 0.045074649879651867 0.016304798146743991 -0.035856090472165807 0.015662159768116506 -0.032529209223927172 -0.0031463074529623374 0.003441473399538585 0.00010391778907591645 -0.046695769774541096 -0.02943800736486106 -0.0019066990093685864 0.049180061846347177 0.065521000665873394 0.011408708579273882 -0.042405425575659642 0.049968129101655524 0.0060498423386171488 0.024197147015617815 0.0039534076978249826 -0.005506612939560656 -0.0092573716866712879 0.013621221199787609 0.017163492289640394 -0.030212651573054274 -0.059300315858586486 -0.0042831827748828115 -0.0010314128641090178 -0.011999571181631367 -0.028627778069475932 0.050710282518748456 -0.04476134194161701 -0.012900864815630617 -0.01124794969924145 -0.0033629685193429827 -0.010455260459037857 0.029421329820756556 -0.0055563710300175458 0.052301418861619264 -0.055920847435425095 -0.058699159886674804 0.065044314643387793 -0.025968020360830752 -0.015994987647512542
leaf_weight=1.5990232937038005 50.533152787946165 21.631573066115383 1.3418182749301184 61.347121777012944 2.8915150854736584 8.0460577066987771 2.4143164269626132 3.1600934043526676 186.88456283509731 2.7128312438726407 9.7062564715743083 12.217921530827878 1.3010083474218834 2.9841637127101412 1.5713996328413475 16.380014855414633 12.029308015480643 29.411596784368157 8.6945332773029786 2.775323141366246 37.390341625083238 7.6157155483961096 14.433195136487486 31.88066428527236 6.0777473226189596 5.7984102591872206 8.8579455874860304 39.065696213394403 19.072701833210886 5.5290305651724321 13.484825640916826 1.5700376657769108 10.170910395681856 17.344316193833947 6.5965675059706035 4.0376639440655699 2.5519304238259819 5.8130376860499373 45.956408265978098 2.5491872951388359 19.768570985645059 2.6295810472220174 13.056918061105533 4.2269073240458956 23.699045475572348 2.3872243836522093 7.7462985776364794 9.3441940713673812 4.910189673304556 26.854137144982815 24.326487489044666 58.486497908830643 8.1324660736136121 11.296146508306263 4.251706648617982 1.4167313240468504 2.2946651224046937 2.9880902096629143 5.3064426220953491 5.1471443865448219 10.318452049046753 21.842172171920538 7.4055718407034892 4.502194069325923 30.069145817309618 4.8861808171495769 4.6851364560425299 20.941561181098223 5.5462750727310794 9.7479539569467306 1.9741795286536206 1.0738454349339006 269.73232495505363 41.161220946349204 3.1336652971804133 2.2973135076463223 11.844832062721254 4.0985107645392418 1.9489760957658289 11.230896107852457 1.0569450519978989 8.032016456127165 6.3344397675246 8.8951893076300603 5.3740691263228646 7.0202387636527401 1.8588775191456068 1.4584811218082907 2.4640322960913181 2.2186903581023207 2.433887641876936 13.774637034162881 36.522802335675806 5.7174413427710533 17.283942114561796 45.373426120728254 1.6026982106268399 1.3160037863999603 3.2199823893606663 7.1868455205112696 3.6518347635865238 1.017876951023936 1.9161638151854266 2.2563362568616858 4.4960150942206383 1.9610758237540715 4.3203730024397373 10.438176693394778 3.6639896146953106 1.2756294533610333 1.5716302692890165 3.9963167309761038 17.306392662227154 9.4428473096340877 2.5915618557482949 1.0248411558568467 2.1235251650214195 0.90840532444417377 2.9462969750165939 1.5528415292501447 25.095899190753698 5.8024585694074631 3.3771732784807682 32.617970366030931 1.0885994173586366 1.7090088240802277
leaf_count=24 1337 103 19 1663 42 161 20 35 520 38 83 107 15 17 18 383 143 234 202 28 1039 44 89 183 39 37 55 964 418 32 139 9 192 162 100 28 36 49 144 27 181 16 293 38 157 8 51 114 83 155 68 199 131 200 29 21 29 21 38 79 81 148 78 21 124 65 69 88 91 86 14 20 7325 1004 40 28 75 25 16 195 17 45 75 37 76 171 24 24 35 24 29 248 652 73 91 139 20 30 20 102 15 19 32 30 37 26 82 264 49 20 23 80 99 193 38 16 28 22 26 21 88 116 67 123 21 38
internal_value=0 0.0301281 0.00624332 -0.0584287 0.0465434 -0.029894 -0.0245053 0.029778 0.0566085 0.0411933 0.0260437 0.00812017 -0.0100038 0.0108337 0.020735 -0.0677267 0.0348067 0.0216174 -0.010244 0.00906926 -0.0482484 0.040824 0.0287042 0.0270209 0.00242415 0.048415 0.0462568 -0.04747 -0.0524739 0.0279057 0.0208192 -0.0291644 -0.01826 0.0361475 -0.0303279 0.0650529 0.0129438 0.0488279 0.0549272 0.00684531 0.0326928 -0.0242694 -0.0284301 0.0379876 0.0415796 -0.0153743 0.0154282 0.00228439 0.000701389 0.0541903 0.0431091 0.0621406 -0.0210834 -0.0267941 0.0393176 0.0126523 -0.030911 -0.0067368 0.0350283 -0.00363007 0.0178541 0.0370522 0.0150093 0.0550035 0.0430798 0.00686707 -0.0375643 0.0464462 -0.0111579 0.0192757 -0.0285303 -0.0401553 -0.0716453 -0.0631633 -0.00235861 0.0282799 0.0368595 0.0180853 0.00241446 -0.0259107 -0.0262059 0.0190641 -0.00642089 0.0358405 -0.00103303 -0.0156621 -0.0140746 -0.00464001 0.0203014 0.0497911 -0.0240787 -0.0389 -0.0279033 -0.0177479 0.0407781 0.0628906 -0.0396007 -0.015115 0.0354694 -0.00446993 0.0622898 -0.0303821 -0.0404481 -0.0425729 0.0339455 -0.0120102 -0.018246 -0.0552697 -0.0220063 -0.0359598 0.00330133 -0.0598196 0.0460017 -0.0376299 -0.0398 -0.0595109 -0.0208373 -0.0620412 0.0214408 0.00252889 0.0498328 -0.0520972 -0.0512057 0.0619343 -0.0190195 -0.0493922
internal_weight=1759.44 1161.18 473.665 598.262 687.511 148.201 205.249 268.416 459.766 165.011 227.744 91.3988 126.82 52.9652 69.5251 450.061 165.615 86.8325 29.495 62.4326 77.8206 177.017 35.3127 64.5766 62.1296 149.866 147.447 78.4291 95.2354 34.4004 47.4465 40.4303 23.1816 49.225 34.4587 294.755 29.5703 78.7821 107.871 11.0946 59.8865 17.6525 64.3873 57.3375 53.1106 22.6787 19.7756 22.829 15.7145 115.466 51.1806 64.2849 51.3303 14.9861 25.8833 5.13491 21.8736 8.51712 40.3511 17.515 30.087 24.6175 38.9479 87.5605 37.6849 28.3741 44.7023 29.7995 22.3413 14.6341 15.1453 9.58914 372.241 102.508 15.3516 5.28148 33.1664 6.65044 4.24364 17.8275 25.6296 17.7383 13.74 12.0553 13.5065 20.7712 10.4331 5.55619 4.85126 19.5982 5.3254 17.63 37.8238 10.8646 29.1288 49.8756 12.5176 4.47154 5.76917 12.7331 74.7041 8.03812 12.0871 16.031 10.5738 12.5382 9.00551 11.78 8.57418 12.5718 3.53271 43.9704 22.6128 13.0914 12.0344 9.71937 3.58201 39.9741 5.16499 3.15554 28.7477 6.8763 4.94857 38.431 2.50533 18.089
internal_count=23987 9310 5465 14677 3845 2833 3523 1942 1845 884 2000 924 1836 630 577 11844 1278 841 412 669 1852 1018 340 492 722 644 733 1687 2203 185 429 813 342 345 621 961 285 437 441 118 405 290 1167 429 391 338 194 253 201 459 223 236 874 240 132 58 347 53 265 213 262 176 380 328 168 304 866 143 392 151 240 174 9992 2667 147 45 194 61 45 295 448 128 153 72 207 383 156 66 43 139 71 302 667 152 166 160 232 71 47 193 247 190 224 278 76 200 151 283 132 220 49 1066 137 248 231 218 52 986 50 41 103 136 85 172 42 421
is_linear=0
shrinkage=0.05


Tree=6
num_leaves=127
num_cat=0
split_feature=34 6 34 34 6 34 5 88 88 0 88 0 88 18 6 88 6 34 0 0 34 10 6 6 34 88 34 0 6 6 34 0 88 34 40 34 62 0 50 44 16 6 6 7 34 40 32 13 34 9 3 18 18 41 32 3 48 59 34 9 20 20 0 40 24 77 34 5 50 88 9 34 12 32 38 0 58 40 12 3 3 17 34 77 34 14 48 3 40 18 48 34 6 6 0 13 3 7 10 34 40 0 6 14 14 3 6 0 18 14 16 14 0 18 48 2 18 41 6 9 5 0 6 7 20 13
split_gain=1087.68 157.239 118.514 56.846 49.8185 48.9528 24.9929 22.9062 18.1092 28.8565 16.796 29.4877 16.5581 15.9858 13.8051 12.2836 11.2111 14.2672 10.8259 10.2553 9.45183 10.5997 8.62248 7.19218 6.63161 5.99954 5.34947 5.04504 5.04462 4.86169 8.00432 5.36564 4.78138 4.64817 4.4527 4.32301 4.2798 4.04861 3.96215 3.83615 3.73409 3.46139 3.4288 3.17727 2.93774 2.91659 2.90634 3.26091 2.98506 2.80474 2.74756 2.70673 2.7041 2.41834 2.29688 2.27873 2.87232 2.12018 2.01463 2.33856 2.18487 1.94613 1.88532 1.8545 1.99134 1.83096 1.78926 1.77926 1.73809 1.73572 1.67786 1.67673 1.60529 1.57854 1.5864 1.57606 1.53868 1.50674 1.40696 1.25447 1.4449 1.24002 1.20232 1.13269 1.10349 1.06457 2.6086 1.80794 0.963051 0.94204 0.865231 0.938358 0.808382 0.796088 0.731277 0.707591 1.70854 0.705144 0.678783 0.674981 0.642943 0.638605 0.953961 0.628373 0.534433 0.533866 0.513296 0.483442 0.460584 0.442144 0.440122 0.436835 0.426441 0.423927 0.446555 0.421591 0.410759 0.370887 0.364226 0.361344 0.349663 0.34751 0.211127 0.206124 0.190385 0.178136
threshold=19.252872346592884 3.7748953486562615 10.562245489559785 23.201677031826573 4.0776257767861841 12.502527621693753 3.3500000000000001 1.0000000180025095e-35 1.0000000180025095e-35 313.50000000000006 1.0000000180025095e-35 302.50000000000006 1.0000000180025095e-35 6.4800000000000013 4.3972180030950891 1.0000000180025095e-35 4.0218865143699345 30.319121659106553 107.50000000000001 287.50000000000006 5.7259245847882143 0.23340675477239356 3.991484375856075 4.4517549261083751 16.035195967615341 1.0000000180025095e-35 4.4542566984689387 103.50000000000001 3.643126684636119 4.3774718358788149 7.5010489154264191 179.50000000000003 1.0000000180025095e-35 13.583176308598459 996.50000000000011 8.9033539298640481 1.0000000180025095e-35 261.50000000000006 0.22649572649572652 822.33333333333337 6.6500000000000012 4.1556055802156004 4.0307071960297778 0.12730095990965559 13.29662161536285 1294.5000000000002 49.682307882930559 8.8500000000000032 14.073469666798177 0.39505152535455573 50.500000000000007 5.3900000000000015 6.7100000000000009 1703.2916666666667 49.831960189640931 61.500000000000007 9.5000000000000018 1.0000000180025095e-35 17.303959263566082 0.33741084343358779 6.5500000000000007 7.0500000000000007 204.50000000000003 1455.5000000000002 0.31666666666666671 73.000000000000014 10.895989679753614 4.8500000000000005 0.37980769230769235 1.0000000180025095e-35 0.39997446047758917 26.127002943526033 0.82015650966093723 30.448838803641625 3052.1250000000005 228.50000000000003 1.0000000180025095e-35 374.50000000000006 0.84414688759516354 269.50000000000006 134.50000000000003 5.4500000000000011 5.3985389920358591 81.000000000000014 20.93507709314639 7.7500000000000009 6.5000000000000009 55.500000000000007 431.50000000000006 9.6500000000000021 13.500000000000002 15.387394935663638 3.9740483652266057 4.4398427923808788 273.50000000000006 7.9500000000000011 317.50000000000006 0.030102358894059999 0.40918680475642505 28.091821017136525 230.50000000000003 296.50000000000006 4.57021984426349 8.2500000000000018 8.8500000000000032 218.50000000000003 3.9564585439838225 105.50000000000001 6.0700000000000012 9.2500000000000018 9.9500000000000011 9.8500000000000032 236.50000000000003 8.5300000000000029 8.5000000000000018 2.5000000000000004 9.7500000000000018 2126.7000000000003 4.0652676551897464 0.44742227328211392 4.6500000000000012 177.50000000000003 4.7599003007686322 0.012511180679785334 5.9500000000000011 9.6500000000000004
decision_type=2 2 2 2 2 2 2 2 2 2 2 2 2 2 2 2 2 2 2 2 2 2 2 2 2 2 2 2 2 2 2 2 2 2 2 2 2 2 2 2 2 2 2 2 2 2 2 2 2 2 2 2 2 2 2 2 2 2 2 2 2 2 2 2 2 2 2 2 2 2 2 2 2 2 2 2 2 2 2 2 2 2 2 2 2 2 2 2 2 2 2 2 2 2 2 2 2 2 2 2 2 2 2 2 2 2 2 2 2 2 2 2 2 2 2 2 2 2 2 2 2 2 2 2 2 2
left_child=1 2 7 4 28 8 32 13 9 29 11 14 37 51 38 39 -5 25 36 26 43 55 58 45 50 120 49 52 -2 30 62 -32 103 40 -28 92 61 44 83 -6 66 -40 85 63 65 76 47 48 -24 -15 -20 -1 -23 -41 -38 68 -57 -29 59 60 -12 -14 -3 -9 -65 -8 -34 71 -22 111 -42 93 82 108 -75 -16 117 100 -74 80 -48 -45 -11 -7 106 86 -37 -87 -46 99 97 -92 -10 -27 -77 105 -97 -35 -25 -69 -71 102 -55 124 -78 -44 -79 -60 -53 -109 -84 -30 -31 -47 -115 -21 -13 -17 -73 -26 -18 -49 -91 -81 -4 -80
right_child=3 5 6 16 15 10 12 20 35 72 22 116 18 19 75 23 17 -19 24 115 21 27 46 98 119 67 34 57 69 112 31 -33 33 90 -36 42 54 -39 41 53 70 -43 95 81 88 113 79 121 -50 -51 -52 73 -54 101 -56 56 -58 -59 107 -61 -62 -63 -64 64 -66 -67 -68 89 -70 77 -72 118 78 74 -76 94 104 84 125 123 -82 -83 110 -85 -86 87 -88 -89 -90 122 91 -93 -94 -95 -96 96 -98 -99 -100 -101 -102 -103 -104 -105 -106 -107 -108 109 -110 -111 -112 -113 -114 114 -116 -117 -118 -119 -120 -121 -122 -123 -124 -125 -126 -127
leaf_value=-0.053091490867466985 -0.061540080612024539 0.063393199795931415 -0.062671326181648626 -0.070401715593022468 0.034290561418708024 -0.032529594329739946 -0.015648011731423463 0.064335099522512346 0.05734589462487294 -0.0044649649786541483 -0.013020139493256089 -0.066015011001299598 -0.013513879543807897 0.054554209092666277 0.057705588702765903 -0.017282801549340344 -0.056492155084928386 -0.066985540720960038 -0.017699265914344828 -0.0064766655693332086 0.034304004008401709 0.026053236911106517 0.055909919311629766 0.057266616091858492 -0.041398464756847907 -0.014820947229725087 0.032005263201311245 0.0081283818453015567 -0.050466886890047427 0.068077695106039032 0.041530137768199513 0.0091573082737950139 0.0072470036472743601 -0.025272226548292299 -0.0012037660178908594 -0.0113419607853683 0.043791866007187569 -0.061547589555739704 -0.00067677242674366283 0.010073539387856267 -0.0087358491375395218 0.027903583531511657 0.0161670587201387 -0.0044231830684905802 -0.0098923438086629175 0.0024712935091542477 0.020972304453811461 0.066009170728132879 0.020408723579787649 0.0030458478994236219 0.013290338275114784 0.024029842279110026 0.059994120931473466 -0.033801671923609188 0 -0.040027547611103796 0.007231286089246558 0.032523020214248057 0.010589936744102 0.044609333132459635 0.020465915114612144 0.034883883062193914 0.036774372947655072 0.052629511923758289 0.023284323641778078 0.021094757251708007 -0.037113823593234216 -0.00034760171325959018 -0.0088011421258650836 -0.01529258523531464 0.038840581080227622 -0.0033995844434049939 0.025032736895516012 -0.03756393822862969 -0.0030759489688626431 0.00089943697590405449 0.0079308079357491377 -0.021772813865053663 -0.029848400290602928 0.040939382568170701 -0.017955559110327365 0.032568804965374717 -0.052924751295617689 0.0054603861541075924 -0.042347728670762648 0.011787545112213157 0.036710765233015467 0.049773684480866637 -0.03775017635097868 -0.023358431048705185 0.014346353033452292 -0.030353080225709053 0.070738410684017608 0.010394336162466317 0.035128594055375162 0.068786868962421796 0.043669883743558596 -0.055699986285776597 0.021288920661628692 0.034111101361465543 0.016293846178671936 -0.058260179521426696 0.0010228220526967283 -0.0048707709187958597 0.04396366541853336 0.047232040811843762 0.0014262751257546936 -0.02048379625038646 -0.0037459016779837623 0.0052816478869300333 -0.0074647560054230261 -0.0084338260451180414 0.044942670086867885 -0.030189446958938257 -0.0022816387861009607 -0.054239869655067323 -0.010178695996794492 0.0092721635496320481 -0.037734079136665433 -0.0012867879872715854 -0.032283061801744083 0.047308600519242627 0 0.011457533749626506 -0.020104236066317917 -0.003374154987156517
leaf_weight=6.2752385605126646 50.375777224544436 29.828880812972784 30.894439626485109 309.83939816150814 1.6823611846193696 7.0606112759560329 9.1857440974563342 37.422636657953262 57.296465706080198 2.7504216544330102 5.7480524275451961 10.740971736609932 7.5131314210593683 16.858434680849317 17.767584059387449 1.6453166380524655 14.831029299646618 63.246151547878981 9.9368395381607133 1.139936864376067 3.8494663909077671 11.799686012789605 9.0301388241350669 12.307059960439803 12.042979176156219 8.5405739387497359 17.927131857722998 17.200196733698249 17.615785878151659 28.312474817037582 25.205504864454269 27.414277747273445 2.3731120284646776 5.8950505033135476 20.886034559458494 3.8804062083363515 20.351195177063349 8.7128484640270454 25.677464686334133 2.4185120463371268 2.4911613631993523 16.598968759179115 4.4421506896615011 3.3558346275240174 5.2509219394996789 1.9761355258524398 4.7643055617809278 19.901374876499176 21.898851105943322 3.4912282824516288 19.509496900252998 1.8339936435222655 23.254610974341631 7.3926873533055169 3.2662111222743979 6.162997938692568 5.0845807567238808 21.634342171251774 1.8914020135998715 6.8577381633222094 16.692466288805008 1.7375429943203924 17.432079162448645 21.909317504614592 12.210240356624125 4.0449908543378106 8.5489983055740577 2.0087930969893923 3.6212083920836449 2.126128192991021 3.2690306883305311 1.4129732027649868 1.8880645036697377 7.0377332810312492 6.6156777087599039 3.0261207781732073 2.3746417388319969 7.9089545859023946 1.3938247766345739 5.0170204658061266 3.0168269425630569 4.0370580740272999 5.4341550022363663 1.9741295799612997 10.339062072336672 5.1554563455283668 6.0378791242837906 16.958262667059898 20.684813496656716 1.1767865568399432 1.1590781537815922 1.5907807499170301 124.17978357151151 3.5821074694395056 3.2931821141391993 39.2942552305758 19.539103843271732 16.228041002526879 3.8561706319451323 2.2233317401260138 2.3012605737894773 3.7784683797508469 2.1364712249487638 0.88499703258275886 4.4645196478813887 5.800669439136982 2.5641862004995346 4.5033970084041357 2.1442381534725428 1.5065677016973493 1.2734329029917715 1.4040670730173577 14.3054430373013 3.6980718905106187 2.9184714145958424 3.2347099650651217 0.97816616669297296 1.4800351746380327 9.7055115336552245 0.92635329999029714 9.2933342335745674 31.761479295790195 1.083114745095372 2.3921130374073982 1.8211846165359009 1.941863875836134
leaf_count=135 1387 106 752 8772 9 93 145 123 194 40 74 272 98 77 86 23 384 1819 164 14 30 72 46 73 246 156 125 147 405 86 130 184 25 127 225 32 130 208 320 32 41 131 23 35 87 31 46 61 186 29 239 20 73 137 38 105 56 166 17 49 154 12 94 85 69 46 179 33 36 41 22 29 11 116 89 28 25 138 24 38 26 21 115 26 215 37 37 88 405 23 16 34 326 46 22 117 78 434 37 17 32 92 29 14 40 29 36 69 25 17 21 26 46 57 41 69 15 21 244 18 208 202 19 22 43 27
internal_value=0 0.0286902 0.00610942 -0.0559205 -0.0287328 0.0442518 -0.0228989 0.0283444 0.0539315 0.0397379 0.0249074 0.00759517 -0.00884536 0.00733251 0.0193 0.0103303 -0.0651657 -0.050791 0.00574095 0.0204347 0.0389218 0.0274621 0.035906 0.0273316 -0.0107895 -0.0308078 0.026135 0.035889 -0.0501856 0.0466142 0.039608 0.0252429 -0.0454453 -0.0324557 0.0144279 0.0616407 0.0269096 -0.0315309 0.00424481 -0.022949 -0.0107249 0.0108147 0.0516341 0.0517921 -0.0233629 0.00515733 0.0436989 0.047525 0.0323568 0.0465081 0.00243064 -0.0267109 0.0497474 -0.0310554 0.0378157 -0.00568173 -0.0194094 0.0223192 0.0146831 0.0206203 0.0114857 -0.00141935 0.054644 0.0550745 0.0432323 -0.00337044 -0.0272565 -0.0147532 0.0142473 -0.0360775 0.0192766 -0.0210773 -0.0254005 -0.0147079 -0.0225445 0.0497244 0.0227352 -0.0252706 -0.00145925 0.0209363 0.00498414 0.0166551 -0.0367414 -0.0240134 -0.0306743 0.035554 0.0181359 0.0420273 -0.0328724 0.00701084 -0.0458594 -0.0113773 0.0668749 -0.0067648 0.0217828 0.0584057 0.0613981 -0.0492518 0.050715 0.0198591 0.000181238 -0.0390612 -0.0261634 -0.0599633 0.0346981 0.0368407 -0.0160278 -0.0066138 0.0103094 -0.0134796 -0.0470311 -0.04819 0.0616351 -0.0149508 -0.0204519 -0.0462449 -0.0629143 -0.00429616 -0.0344239 -0.0391886 -0.0490213 0.0557239 -0.0142275 0.0345099 -0.0611166 -0.0199226
internal_weight=1692.88 1119.17 457.305 573.707 146.764 661.864 198.319 258.987 439.765 157.18 222.099 87.1172 123.163 87.4444 75.3981 52.1289 426.943 117.104 75.2837 63.5375 171.542 92.6071 134.982 34.7204 42.4157 53.8576 59.1628 73.8888 94.6352 142.499 99.8807 52.6198 75.1559 41.5553 38.8132 282.584 32.8681 47.8793 51.3112 17.4085 16.6823 42.2764 101.108 78.9351 39.1665 18.5572 97.7821 82.5918 30.929 20.3497 29.4463 23.9069 35.0543 15.7261 23.6174 18.7183 11.2476 38.8345 37.1996 29.2983 22.4405 9.25067 47.261 71.5422 34.1196 13.2307 10.9221 29.7332 7.47067 44.2594 5.76019 23.2412 14.6818 17.6316 13.6534 24.0869 9.96451 25.2396 5.22375 15.1903 7.78113 7.39289 9.45801 9.03474 20.8122 32.032 9.91829 22.1137 25.9357 6.49203 24.873 2.74986 181.476 12.1227 6.3193 69.0762 58.8334 22.1231 16.1632 4.23212 4.42739 13.3076 9.52916 33.6006 6.83916 10.2428 10.4731 7.90137 3.97823 6.00996 6.70759 19.0199 42.6179 8.59268 6.61654 4.37465 11.7191 3.12535 11.1185 12.9693 24.1244 51.6629 2.2599 7.40913 32.7156 3.33569
internal_count=23987 9310 5465 14677 2927 3845 3523 1942 1845 884 2000 993 1836 924 706 647 11750 2978 945 539 1018 685 1007 348 667 1159 456 458 2280 646 514 314 1687 878 350 961 278 891 570 299 267 451 441 333 683 238 627 495 232 106 403 385 145 290 168 227 161 313 380 277 228 110 200 277 154 191 204 567 66 893 63 475 238 250 205 136 109 462 62 132 72 56 176 119 389 194 69 125 492 92 611 50 520 202 50 247 195 561 110 50 73 258 166 809 65 52 174 103 45 86 136 431 132 129 98 83 287 44 273 264 592 263 42 60 795 51
is_linear=0
shrinkage=0.05


Tree=7
num_leaves=127
num_cat=0
split_feature=34 6 34 34 6 34 5 5 88 0 88 34 6 88 6 34 0 88 0 88 0 6 88 6 40 88 65 88 0 6 34 34 34 18 0 88 0 0 34 9 0 34 6 17 62 34 3 6 50 48 48 20 34 41 17 40 40 32 3 34 50 0 61 14 12 69 14 0 9 0 88 59 0 69 0 40 0 5 32 34 40 57 10 12 5 32 17 6 3 48 34 14 77 34 40 5 0 14 34 40 43 43 6 18 43 69 34 6 34 34 40 50 6 9 34 6 41 14 0 32 0 48 0 48 10 14
split_gain=962.849 135.968 118.598 53.9832 43.9721 39.491 24.213 22.5483 17.7441 27.886 14.7961 12.8346 11.7962 10.887 10.8528 13.2316 10.6772 10.3158 12.5567 9.08832 7.30284 6.45492 6.07511 4.77973 4.68807 4.64364 4.63799 4.55529 4.67867 4.54489 6.00849 4.43279 4.30777 4.30013 4.26647 4.23367 4.12224 4.03867 4.1561 3.66428 3.56502 3.43732 4.41027 3.4296 3.42047 3.72021 3.40374 3.14008 3.02739 2.90421 2.88895 3.95109 2.8781 2.67109 2.62679 2.50971 2.41361 2.41289 2.19978 2.17962 2.04568 1.9995 1.93 1.89393 1.77968 1.7723 1.70277 1.69487 1.71443 1.63493 1.63228 1.55159 1.52954 1.47494 1.41167 1.3831 1.30431 1.2746 1.24945 1.2371 1.20814 1.17593 1.1023 1.09121 1.02571 1.09373 1.00447 0.95558 0.89459 0.89135 0.880902 0.880442 0.867001 0.849231 0.804595 0.759537 0.733038 0.706021 0.859132 0.700289 0.68977 0.682147 0.67637 0.672302 0.638693 0.611865 0.95332 0.591812 0.579982 0.575725 0.486617 0.476635 0.391093 0.350382 0.34475 0.291984 0.285744 0.284839 0.24901 0.216473 0.212463 0.179894 0.131824 0.113974 0.111799 0.0418497
threshold=19.252872346592884 3.829478609625669 10.562245489559785 23.201677031826573 4.0776257767861841 13.29662161536285 3.3500000000000001 3.1500000000000008 1.0000000180025095e-35 311.50000000000006 1.0000000180025095e-35 7.0250001645948252 4.4107134948403397 1.0000000180025095e-35 4.0218865143699345 29.806010336612996 140.50000000000003 1.0000000180025095e-35 241.50000000000003 1.0000000180025095e-35 182.50000000000003 4.4517549261083751 1.0000000180025095e-35 3.643126684636119 1103.5000000000002 1.0000000180025095e-35 1.0000000180025095e-35 1.0000000180025095e-35 287.50000000000006 4.3774718358788149 8.3393910599288059 14.771275085167904 7.2754690779115068 5.7500000000000009 228.50000000000003 1.0000000180025095e-35 195.50000000000003 300.50000000000006 15.000528609654241 0.40005549389567158 285.50000000000006 7.9122791173568414 4.0716310471251012 6.5500000000000007 1.0000000180025095e-35 15.900985444279497 914.50000000000011 4.1216943074854333 0.43650793650793657 7.5000000000000009 12.500000000000002 6.7500000000000009 14.224681336608333 1198.7500000000002 4.5500000000000007 1590.5000000000002 1514.5000000000002 40.513444271998672 31.500000000000004 3.3437791823277192 0.59166666666666679 208.50000000000003 1.0000000180025095e-35 5.9500000000000011 0.82015650966093723 1.0000000180025095e-35 8.8500000000000032 137.50000000000003 0.20005800464037127 302.50000000000006 1.0000000180025095e-35 1.0000000180025095e-35 456.50000000000006 1.0000000180025095e-35 66.500000000000014 2495.5000000000005 170.50000000000003 4.8500000000000005 39.943372875107407 26.127002943526033 374.50000000000006 1.0000000180025095e-35 0.18522531198587538 0.49855600775677683 2.8500000000000001 30.552594809536625 4.2500000000000009 4.57021984426349 1239.5000000000002 3.5000000000000004 7.9122791173568414 9.0500000000000025 95.000000000000014 20.93507709314639 2563.5000000000005 4.7500000000000009 388.50000000000006 9.6500000000000004 26.705695938489033 4844.5000000000009 1031.5000000000002 382.50000000000006 4.3582825500996139 8.5300000000000029 443.50000000000006 1.0000000180025095e-35 15.000528609654241 4.0449536136465669 5.3985389920358591 27.91825898268436 230.50000000000003 0.48076923076923084 3.9564585439838225 0.56280339805825252 29.498306556619706 4.2509703267810197 1759.1000000000001 9.8500000000000032 325.50000000000006 36.469011287724143 236.50000000000003 9.5000000000000018 412.50000000000006 13.500000000000002 0.40508639009516773 6.9500000000000011
decision_type=2 2 2 2 2 2 2 2 2 2 2 2 2 2 2 2 2 2 2 2 2 2 2 2 2 2 2 2 2 2 2 2 2 2 2 2 2 2 2 2 2 2 2 2 2 2 2 2 2 2 2 2 2 2 2 2 2 2 2 2 2 2 2 2 2 2 2 2 2 2 2 2 2 2 2 2 2 2 2 2 2 2 2 2 2 2 2 2 2 2 2 2 2 2 2 2 2 2 2 2 2 2 2 2 2 2 2 2 2 2 2 2 2 2 2 2 2 2 2 2 2 2 2 2 2 2
